tree
version=v2
num_class=1
num_tree_per_iteration=1
label_index=0
max_feature_idx=11
objective=binary sigmoid:1
feature_names=Column_0 Column_1 Column_2 Column_3 Column_4 Column_5 Column_6 Column_7 Column_8 Column_9 Column_10 Column_11
feature_infos=[0:1] [0:1] [0:1] [0:1] [0:1] [1:3] [0:8] [0:6] [1:7] [-2.224156079948338:3.8915544515600136] [-0.64842165353892045:9.6671665250135046] [-0.83885607686563746:9.6193454202122446]
tree_sizes=1701 1721 1723 1717 1722 1720 1718 1721 1710 1719 1724 1718 1735 1730 1724 1726 1730 1728 1722 1725 1736 1715 1724 1726 1725 1734 1736 1731 1729 1739 1746 1738 1742 1742 1753 1762 1735 1752 1742 1764 1745 1747 1755 1748 1759 1764 1763 1749 1760 1759 1748 1782 1759 1748 1782 1760 1752 1747 1737 1755 1756 1768 1771 1756 1772 1757 1758 1763 1756 1757 1753 1760 1764 1757 1759 1756 1751 1766 1746 1764 1756 1765 1765 1748 1753 1765 1772 1745 1772 1750 1757 1768 1771 1756 1772 1757 1744 1769 1771 1767

Tree=0
num_leaves=21
num_cat=0
split_feature=0 5 9 11 10 11 9 4 10 9 11 2 11 10 11 10 9 10 9 9
split_gain=263.051 65.8822 24.1677 25.3718 19.8456 10.304 8.03204 5.95717 5.89986 2.68336 2.54222 2.14349 1.70226 1.4094 1.24131 1.97358 1.13256 1.07428 1.21066 0.8109
threshold=1.0000000180025095e-35 2.5000000000000004 -1.7569090325548877 0.39373121148892903 -0.17072620003723391 0.60401594894850263 0.52937380625352481 1.0000000180025095e-35 0.39195474787594237 -0.14306232280777309 -0.47408619826342291 1.0000000180025095e-35 1.2112969185326365 -0.47555630343286964 -0.46583391282823045 -0.4827302924774492 0.068274746325777638 -0.047401241019411795 0.6254361104051388 0.22197443296836
decision_type=2 2 2 2 2 2 2 2 2 2 2 2 2 2 2 2 2 2 2 2
left_child=2 17 -1 8 7 6 -5 10 11 -9 -3 14 -7 -13 19 16 -16 18 -2 -4
right_child=1 4 3 5 -6 12 -8 9 -10 -11 -12 13 -14 -15 15 -17 -18 -19 -20 -21
leaf_value=-0.35370184583497372 -0.23763322243548116 -0.39397055191234875 -0.60163362376392115 -0.31846672801727066 -0.58679570216747123 -0.57053334009776213 -0.48851447052879432 -0.39706814468753138 -0.48182954699025776 -0.48336707940412121 -0.30245076537286009 -0.57920659986827361 -0.49918878392097366 -0.5087363642328675 -0.57517972926053618 -0.59793430632480626 -0.5147766701444737 -0.22130322130784685 -0.29732565732664873 -0.63558278837659865
leaf_count=24 51 21 137 24 26 26 23 39 22 25 33 30 31 20 35 146 21 99 20 38
internal_value=0 1.51455 -0.824207 -0.911877 0.491156 0.00328537 0.716061 0.849479 -1.12385 0.42509 1.35246 -1.17735 -0.584442 -0.777308 -1.23041 -1.12059 -0.792409 2.38142 2.1884 -1.35718
internal_count=891 314 577 553 144 104 47 118 449 64 54 427 57 50 377 202 56 170 71 175
shrinkage=1


Tree=1
num_leaves=21
num_cat=0
split_feature=0 5 9 11 10 11 9 4 10 9 11 2 2 10 11 11 9 9 9 10
split_gain=210.72 49.1706 20.7989 21.4698 16.2664 7.69641 5.73386 5.70331 5.38967 2.19957 2.11249 1.66668 1.59968 1.51556 1.91588 1.39596 1.33009 1.66168 0.974309 0.958586
threshold=1.0000000180025095e-35 2.5000000000000004 -1.2189601293058494 0.39373121148892903 -0.148913286673649 0.60401594894850263 0.52937380625352481 1.0000000180025095e-35 0.39195474787594237 -0.14306232280777309 -0.47408619826342291 1.0000000180025095e-35 1.0000000180025095e-35 -0.38247565803801414 -0.46583391282823045 -0.48111007206669099 -0.085424940316804712 -0.7002236868871341 0.22197443296836 -0.49007039269131819
decision_type=2 2 2 2 2 2 2 2 2 2 2 2 2 2 2 2 2 2 2 2
left_child=2 -2 -1 8 7 6 -5 10 12 -9 -3 -7 13 14 19 -14 17 -16 -18 -4
right_child=1 4 3 5 -6 11 -8 9 -10 -11 -12 -13 15 -15 16 -17 18 -19 -20 -21
leaf_value=0.072445521404525273 0.20506297055857112 0.070118658263839048 -0.11658174281922234 0.13048575123071707 -0.11774695167723846 -0.087064346651335556 -0.013756136861664884 0.062090844666350301 -0.0077039216890612819 -0.014584748398287193 0.1521493136222335 -0.016129757690447052 -0.10813267084663702 -0.14333850392499123 -0.064686475874289343 -0.036783975425885067 -0.032672339248538275 -0.13088933933686064 -0.088544977419692833 -0.15451262286260128
leaf_count=37 170 21 116 23 23 30 23 40 22 26 34 27 27 76 24 21 21 53 38 39
internal_value=0 1.32364 -0.759918 -0.864881 0.436881 -0.021733 0.595846 0.730124 -1.06912 0.322251 1.21099 -0.534333 -1.12325 -1.17042 -1.10185 -0.766912 -0.921624 -1.1026 -0.686779 -1.26131
internal_count=891 314 577 540 144 103 46 121 437 66 55 57 415 367 291 48 136 77 59 155
shrinkage=0.1


Tree=2
num_leaves=21
num_cat=0
split_feature=0 5 11 9 10 9 11 10 4 11 2 11 10 11 9 9 10 10 10 9
split_gain=171.386 38.7994 17.4222 17.7932 13.3096 6.09735 7.16012 4.66878 4.48322 2.05892 1.92992 1.6557 1.48776 1.75255 1.18499 1.49419 1.05804 0.896047 1.22075 0.993314
threshold=1.0000000180025095e-35 2.5000000000000004 0.39373121148892903 -1.5263595025910142 -0.148913286673649 1.7781837602245065 0.96220521936511094 0.39195474787594237 1.0000000180025095e-35 -0.45974136838121987 1.0000000180025095e-35 -0.47408619826342291 -0.38247565803801414 -0.46583391282823045 -0.085424940316804712 -0.7002236868871341 -0.47555630343286964 -0.49007039269131819 -0.4924613867947249 -0.14306232280777309
decision_type=2 2 2 2 2 2 2 2 2 2 2 2 2 2 2 2 2 2 2 2
left_child=2 -2 3 -1 8 6 -4 10 11 -10 12 -3 13 17 15 -15 -12 18 19 -5
right_child=1 4 5 7 -6 -7 -8 -9 9 -11 16 -13 -14 14 -16 -17 -18 -19 -20 -21
leaf_value=0.062945166871580527 0.18189788491621403 0.062281403773994652 0.080637618189597082 -0.09430146820238372 -0.11015297614319204 -0.095657577462337579 -0.04015830262185207 -0.0069469652083144658 0.063658186696171237 -0.0085329990954495626 -0.091264219938485977 0.13438115666851408 -0.13610915550762748 -0.059425967060307311 -0.063145895993984652 -0.1230356104471455 -0.029183999806549277 -0.14670867024329351 -0.083587677491529316 -0.14799194490430201
leaf_count=30 170 21 48 25 23 21 37 22 34 32 30 34 78 24 59 53 20 39 49 42
internal_value=0 1.17939 -0.703113 -0.881175 0.391094 0.0485914 0.291936 -0.993102 0.64978 0.288178 -1.04469 1.07179 -1.09854 -1.02896 -0.854667 -1.02916 -0.658451 -1.18515 -1.09154 -1.27887
internal_count=891 314 577 471 144 106 85 441 121 66 419 55 369 291 136 77 50 155 116 67
shrinkage=0.1


Tree=3
num_leaves=21
num_cat=0
split_feature=0 5 9 11 10 11 10 9 10 10 11 11 2 11 9 10 9 9 10 9
split_gain=140.83 31.8102 15.0019 15.8285 10.979 5.2549 4.15393 4.08466 2.95232 5.55363 1.58259 1.47174 1.92031 1.27894 1.21474 0.840232 0.938752 0.751298 1.20821 0.923049
threshold=1.0000000180025095e-35 2.5000000000000004 -1.2189601293058494 0.39373121148892903 -0.17072620003723391 0.60401594894850263 0.39195474787594237 0.52937380625352481 -0.48969286730656975 -0.33889312088829548 1.2112969185326365 -0.16541064045796935 1.0000000180025095e-35 -0.47359341893315005 -0.52731153941422892 -0.047401241019411795 0.6254361104051388 -0.21991216612906425 -0.48570821271234493 0.22197443296836
decision_type=2 2 2 2 2 2 2 2 2 2 2 2 2 2 2 2 2 2 2 2
left_child=2 15 -1 6 8 7 11 -5 -3 14 -7 12 13 -4 -10 16 -2 18 -15 -19
right_child=1 4 3 5 -6 10 -8 -9 9 -11 -12 -13 -14 17 -16 -17 -18 19 -20 -21
leaf_value=0.059279271925662104 0.16246786682421774 0.10270165504769804 -0.12442241176416442 0.10668294715467662 -0.092995822608098702 -0.084264366684243031 -0.006263358388721255 -0.014400388189652079 0.027520408307974999 0.10210984664039835 -0.014030117548480643 -0.14478209289990593 -0.051941499119652859 -0.084490010517754843 -0.039508879439990707 0.17659725533098286 0.11126566258720814 -0.071574560778307941 -0.1341873719068023 -0.1041759303280656
leaf_count=37 51 42 81 23 26 26 22 23 20 31 31 30 42 47 25 99 20 103 45 67
internal_value=0 1.06491 -0.652132 -0.747285 0.35166 -0.0246895 -0.933473 0.478454 0.600354 0.360493 -0.457988 -0.984463 -0.948522 -1.00309 -0.0947524 1.64641 1.48008 -0.930193 -1.08809 -0.845024
internal_count=891 314 577 540 144 103 437 46 118 76 57 415 385 343 45 170 71 262 92 170
shrinkage=0.1


Tree=4
num_leaves=21
num_cat=0
split_feature=0 5 11 9 10 9 4 11 10 9 9 2 9 11 11 10 6 11 10 10
split_gain=116.494 26.8617 13.1876 9.61722 9.16411 4.58135 3.30363 2.97784 3.58001 1.83341 5.59366 2.8949 1.55549 1.29031 0.890161 1.17058 0.775989 0.82842 1.52749 0.751172
threshold=1.0000000180025095e-35 2.5000000000000004 1.0000000180025095e-35 -1.7569090325548877 -0.148913286673649 1.7781837602245065 1.0000000180025095e-35 0.96220521936511094 -0.047401241019411795 0.22197443296836 0.068274746325777638 1.0000000180025095e-35 -0.14306232280777309 -0.47408619826342291 -0.46583391282823045 -0.38247565803801414 1.5000000000000002 -0.34332519884904095 -0.33138388930205925 -0.047401241019411795
decision_type=2 2 2 2 2 2 2 2 2 2 2 2 2 2 2 2 2 2 2 2
left_child=2 19 3 -1 6 7 13 8 -4 10 11 16 -8 -3 -11 -16 17 18 -5 -2
right_child=1 4 5 9 -6 -7 12 -9 -10 14 -12 -13 -14 -15 15 -17 -18 -19 -20 -21
leaf_value=0.056223757516007937 0.13541486738350855 0.049091124369156539 -0.011671305174783961 -0.092550768695310634 -0.097892854298673934 -0.089740557874403215 0.0460967748861284 -0.033896134162253538 0.081731921736717089 -0.1374002058198418 0.02850858013183662 -0.03294412749301634 -0.017986396556561833 0.11238720973816461 -0.074104230652241407 -0.13777299494597497 -0.1324686196410387 -0.12500943151815758 -0.029233812055706843 0.16269694461760084
leaf_count=20 71 21 33 186 23 23 40 37 38 43 21 40 26 34 40 22 23 31 20 99
internal_value=0 0.970271 -0.605646 -0.791392 0.316666 -0.0286626 0.522468 0.147321 0.39307 -0.867719 -0.786086 -0.86433 0.213842 0.88339 -1.1226 -0.956951 -0.951347 -0.912492 -0.861847 1.51243
internal_count=891 314 577 446 144 131 121 108 71 426 321 300 66 55 105 62 260 237 206 170
shrinkage=0.1


Tree=5
num_leaves=21
num_cat=0
split_feature=0 5 11 9 10 9 9 11 10 9 10 10 11 2 11 10 9 10 9 10
split_gain=96.8484 23.0768 11.665 11.4297 7.59353 4.02641 4.8929 3.83407 3.40597 2.72281 3.14838 4.92989 1.566 2.07025 1.36124 1.52327 1.39374 1.28424 1.22314 1.1116
threshold=1.0000000180025095e-35 2.5000000000000004 0.39373121148892903 -1.5263595025910142 -0.148913286673649 1.086535170332886 0.16433705047739164 0.96220521936511094 0.39195474787594237 -0.085424940316804712 -0.48969286730656975 -0.33889312088829548 -0.16541064045796935 1.0000000180025095e-35 -0.46583391282823045 -0.4827302924774492 -0.21991216612906425 -0.49007039269131819 0.37567411961094238 -0.49212614425306828
decision_type=2 2 2 2 2 2 2 2 2 2 2 2 2 2 2 2 2 2 2 2
left_child=2 -2 3 -1 9 6 7 -4 12 10 -3 -12 13 14 17 -16 -17 19 -18 -5
right_child=1 4 5 8 -6 -7 -8 -9 -10 -11 11 -13 -14 -15 15 16 18 -19 -20 -21
leaf_value=0.047545013862449859 0.14040440766826462 0.10537237934201922 0.054355703499610587 -0.10426589930964486 -0.092241036310969526 -0.046152300553586822 0.12143108713079441 -0.067751359336096204 -0.0029826708070564601 -0.01839213332108925 -0.017022058692533336 0.10025368009244036 -0.1369548362474233 -0.03925396335859592 -0.045907468702721443 -0.12331378077712313 -0.048170071565485389 -0.13396064339360367 -0.10549682054797681 -0.053842417687532985
leaf_count=30 170 39 23 86 23 42 20 21 22 22 35 25 30 44 56 43 44 53 33 30
internal_value=0 0.890805 -0.562246 -0.720658 0.286433 0.0532977 0.37271 -0.0120422 -0.821092 0.470295 0.610642 0.319625 -0.870132 -0.832194 -0.893494 -0.756996 -0.902821 -1.04142 -0.723577 -0.908303
internal_count=891 314 577 471 144 106 64 44 441 121 99 60 419 389 345 176 120 169 77 116
shrinkage=0.1


Tree=6
num_leaves=21
num_cat=0
split_feature=0 5 11 9 10 9 9 9 9 11 9 9 2 9 11 11 10 10 6 11
split_gain=80.8487 20.0991 10.0538 7.01492 6.36357 4.21531 2.463 4.91776 2.36253 2.53225 1.71003 4.78704 2.50419 1.56707 0.950492 0.9129 1.13145 0.880458 0.794062 0.802551
threshold=1.0000000180025095e-35 2.5000000000000004 1.0000000180025095e-35 -1.7569090325548877 -0.17072620003723391 -0.14306232280777309 0.16433705047739164 1.086535170332886 -0.98841059934197595 -0.45974136838121987 0.22197443296836 0.068274746325777638 1.0000000180025095e-35 1.7781837602245065 -0.47634496667682696 -0.46583391282823045 -0.38247565803801414 -0.49141337632666326 1.5000000000000002 -0.34332519884904095
decision_type=2 2 2 2 2 2 2 2 2 2 2 2 2 2 2 2 2 2 2 2
left_child=2 -2 3 -1 8 -4 -7 -8 -3 14 11 12 18 -9 -10 -12 -17 -16 19 -5
right_child=1 4 5 10 -6 6 7 13 9 -11 15 -13 -14 -15 17 16 -18 -19 -20 -21
leaf_value=0.045559669759985037 0.13135413959653972 0.10160308108714633 0.07542039828749636 -0.075531944896669839 -0.078010191805375717 -0.06694263290413939 0.07941643475432085 -0.002974981078051503 0.020034068066620968 -0.015892990981978557 -0.1296529627841459 0.030906306914805021 -0.02586463851981205 -0.080063198500740396 0.042355899795180028 -0.063704137527787461 -0.12957536862665647 0.10226150242817873 -0.12389477449238147 -0.11570492504801999
leaf_count=20 170 23 25 206 26 34 23 26 22 33 43 21 40 23 20 40 22 20 23 31
internal_value=0 0.821812 -0.523053 -0.694658 0.259478 -0.0184266 -0.203606 0.018873 0.439999 0.298043 -0.76505 -0.684227 -0.761669 -0.375498 0.537104 -1.02421 -0.851485 0.722566 -0.847901 -0.806698
internal_count=891 314 577 446 144 131 106 72 118 95 426 321 300 49 62 105 62 40 260 237
shrinkage=0.1


Tree=7
num_leaves=21
num_cat=0
split_feature=0 5 9 11 10 11 10 9 4 11 2 2 11 10 9 10 9 9 9 11
split_gain=67.5599 17.7231 9.04074 9.3804 5.3189 3.41738 3.06533 2.55189 2.20498 1.58489 1.55382 1.34483 1.25347 1.35757 1.35218 1.24625 1.10911 1.09288 1.46317 1.07413
threshold=1.0000000180025095e-35 2.5000000000000004 -1.2189601293058494 0.39373121148892903 -0.148913286673649 0.60401594894850263 0.39195474787594237 0.52937380625352481 1.0000000180025095e-35 -0.16541064045796935 1.0000000180025095e-35 1.0000000180025095e-35 -0.46583391282823045 -0.4827302924774492 -0.21991216612906425 -0.49007039269131819 0.37567411961094238 0.22197443296836 -0.46967415692326059 -0.47408619826342291
decision_type=2 2 2 2 2 2 2 2 2 2 2 2 2 2 2 2 2 2 2 2
left_child=2 -2 -1 6 8 7 9 -5 19 11 -7 12 15 -14 -15 17 -16 18 -4 -3
right_child=1 4 3 5 -6 10 -8 -9 -10 -11 -12 -13 13 14 16 -17 -18 -19 -20 -21
leaf_value=0.047772949262923747 0.1236376912452269 0.032670552490229765 -0.11235579803679541 0.08565037936460726 -0.082600360950606549 -0.07101718000433091 0.002476197670290693 -0.010653410162223766 0.013307452564275707 -0.13088346899204267 -0.00029727948484282497 -0.037225225692985267 -0.037278334798660891 -0.11509577651691683 -0.038992100316788562 -0.1267795856083905 -0.095859030166306869 -0.12551942761914914 -0.048070725415981813 0.090574978388192756
leaf_count=37 170 21 29 23 23 30 22 23 66 30 27 42 56 43 44 51 33 27 60 34
internal_value=0 0.760183 -0.48565 -0.568788 0.234868 -0.0125693 -0.731089 0.392975 0.383699 -0.781507 -0.371589 -0.74165 -0.793578 -0.659 -0.804697 -0.945104 -0.62368 -0.811532 -0.69107 0.681504
internal_count=891 314 577 540 144 103 437 46 121 415 57 385 343 176 120 167 77 116 89 55
shrinkage=0.1


Tree=8
num_leaves=21
num_cat=0
split_feature=0 5 11 9 10 9 9 9 9 10 10 9 9 2 9 10 9 11 10 6
split_gain=56.6264 15.7229 7.79578 5.05198 4.43355 3.25447 2.1447 3.76638 1.93748 2.057 4.26241 1.5477 4.05985 2.18164 1.36082 0.921304 1.0541 0.9193 1.11141 0.84765
threshold=1.0000000180025095e-35 2.5000000000000004 1.0000000180025095e-35 -1.7569090325548877 -0.17072620003723391 -0.14306232280777309 0.16433705047739164 1.086535170332886 -0.98841059934197595 -0.48969286730656975 -0.33889312088829548 0.22197443296836 0.068274746325777638 1.0000000180025095e-35 1.7781837602245065 -0.047401241019411795 0.6254361104051388 -0.46583391282823045 -0.38247565803801414 1.5000000000000002
decision_type=2 2 2 2 2 2 2 2 2 2 2 2 2 2 2 2 2 2 2 2
left_child=2 15 3 -1 8 -4 -7 -8 -3 -10 -11 12 13 19 -9 16 -2 -13 -19 -5
right_child=1 4 5 11 -6 6 7 14 9 10 -12 17 -14 -15 -16 -17 -18 18 -20 -21
leaf_value=0.03620661900184597 0.11509984925811967 0.088189962068999747 0.06695763607393429 -0.071505331030059321 -0.06920784140802437 -0.061622143128960562 0.07114532044861481 0.00033146752485724063 0.06037871174204798 -0.045586217540498325 0.066965042931886612 -0.12341131333066049 0.031653092497322018 -0.019990679596899701 -0.072700179464373876 0.1308107142823367 0.056914047432635284 -0.05461414317592346 -0.12358101349137307 -0.1177404044868085
leaf_count=20 51 23 25 237 26 34 23 26 37 35 23 43 21 40 23 99 20 40 22 23
internal_value=0 0.70535 -0.451901 -0.611641 0.213083 -0.00636911 -0.172917 0.0356708 0.359699 0.23065 -0.00847874 -0.675989 -0.597633 -0.67397 -0.317687 1.16915 0.982163 -0.937152 -0.759796 -0.759678
internal_count=891 314 577 446 144 131 106 72 118 95 58 426 321 300 49 170 71 105 62 260
shrinkage=0.1


Tree=9
num_leaves=21
num_cat=0
split_feature=0 5 9 5 10 9 11 11 8 11 9 11 10 11 10 9 9 9 11 9
split_gain=47.4848 14.031 6.95158 7.29774 3.84153 2.81899 2.72474 2.67325 2.20472 2.02831 2.18196 1.87529 1.35737 2.51195 0.898808 0.971733 0.872724 1.86688 1.95956 1.81956
threshold=1.0000000180025095e-35 2.5000000000000004 -1.2189601293058494 1.5000000000000002 -0.22483817185117627 -0.98841059934197595 -0.16541064045796935 -0.45974136838121987 3.5000000000000004 0.88842585791475936 0.52937380625352481 1.6100096260277168 -0.48914822401817265 -0.45974136838121987 -0.047401241019411795 0.6254361104051388 -0.75786106937810238 -0.29676200945035541 -0.40030605088112531 0.22197443296836
decision_type=2 2 2 2 2 2 2 2 2 2 2 2 2 2 2 2 2 2 2 2
left_child=2 14 -1 9 5 -3 8 -7 12 10 -4 -11 -5 -14 15 -2 -15 -18 -19 -20
right_child=1 4 3 6 -6 7 -8 -9 -10 11 -12 -13 13 16 -16 -17 17 18 19 -21
leaf_value=0.042561758022364872 0.10902729740891673 0.10444947927857079 0.054804028941659193 -0.081441392406580368 -0.049937375008311399 0.044719651977232155 -0.13461864762912032 -0.030453564357945152 0.011576991955129068 -0.084482307555368841 -0.017728086068128323 0.0054377662312889291 0.009874270216585216 -0.018077878611091506 0.12523328197515105 0.052350079850132569 -0.1255725445907675 -0.090120497284719922 0.012720586672200739 -0.069721842832690603
leaf_count=37 51 20 35 170 34 61 31 29 22 23 41 20 31 22 99 20 31 52 30 32
internal_value=0 0.656108 -0.41934 -0.496543 0.193516 0.361086 -0.660926 0.206263 -0.605481 -0.0418814 0.167232 -0.41597 -0.651554 -0.517908 1.11026 0.922538 -0.636831 -0.703471 -0.568548 -0.275996
internal_count=891 314 577 540 144 110 421 90 390 119 76 43 368 198 170 71 167 145 114 62
shrinkage=0.1


Tree=10
num_leaves=21
num_cat=0
split_feature=0 5 6 9 10 10 9 9 9 10 10 10 11 10 11 9 10 11 10 11
split_gain=39.823 12.5896 7.32647 25.2151 7.77445 3.28028 1.93122 1.93039 1.592 1.94111 3.73059 1.45324 1.39846 1.30035 2.06166 1.24846 1.98966 1.00501 0.941549 0.891034
threshold=1.0000000180025095e-35 2.5000000000000004 2.5000000000000004 -1.161322746814881 -0.1195508723494547 -0.148913286673649 1.7781837602245065 0.16433705047739164 -0.085424940316804712 -0.48969286730656975 -0.33889312088829548 -0.021477831266685933 -0.16541064045796935 -0.48914822401817265 -0.45974136838121987 -0.14306232280777309 -0.50265457218293264 0.60401594894850263 -0.4924613867947249 0.9949691503386634
decision_type=2 2 2 2 2 2 2 2 2 2 2 2 2 2 2 2 2 2 2 2
left_child=2 19 3 -1 12 8 7 17 9 -3 -11 -9 13 15 -15 16 -5 -6 -17 -2
right_child=1 5 -4 4 6 -7 -8 11 -10 10 -12 -13 -14 14 -16 18 -18 -19 -20 -21
leaf_value=0.18205374340935598 0.094888717844447315 0.075297103967663467 -0.15267846180592648 0.012461612840741647 0.0059181438210354036 -0.071153681378718886 -0.063913557713823663 0.084221844566751553 -0.021392920539558206 -0.025610468418713145 0.076979217245563739 0.011694696203763406 -0.12337517631902105 0.0088411396146767431 -0.057991371882159949 -0.11432699055455789 -0.079881030850288984 -0.0515792338767532 -0.068470866322707699 0.13146192466934239
leaf_count=21 118 39 25 21 33 23 22 20 22 35 25 33 25 31 163 59 44 24 56 52
internal_value=0 0.610341 -0.388904 -0.326854 -0.446184 0.175504 -0.0120745 0.0956167 0.288127 0.396961 0.169257 0.384892 -0.638298 -0.601955 -0.465912 -0.758894 -0.482611 -0.1778 -0.918678 1.05726
internal_count=891 314 577 552 531 144 132 110 121 99 60 53 399 374 194 180 65 57 115 170
shrinkage=0.1


Tree=11
num_leaves=21
num_cat=0
split_feature=0 5 6 9 10 10 9 11 9 7 11 11 2 11 9 10 9 10 9 10
split_gain=33.4527 11.2687 6.22339 20.789 6.73377 2.86724 2.34691 1.93809 1.6126 1.74648 2.64209 1.34519 1.32318 1.2266 1.0687 0.921998 0.963978 0.898361 0.864014 0.719885
threshold=1.0000000180025095e-35 2.5000000000000004 2.5000000000000004 -1.161322746814881 -0.1195508723494547 -0.22483817185117627 -0.98841059934197595 -0.45974136838121987 1.7781837602245065 1.0000000180025095e-35 0.43553257391193673 -0.16541064045796935 1.0000000180025095e-35 -0.47359341893315005 -0.14306232280777309 -0.047401241019411795 0.6254361104051388 2.192120617417038 -0.14306232280777309 -0.38247565803801414
decision_type=2 2 2 2 2 2 2 2 2 2 2 2 2 2 2 2 2 2 2 2
left_child=2 15 3 -1 11 6 -3 -8 9 10 -6 12 13 14 -5 16 18 -17 -2 -15
right_child=1 5 -4 4 8 -7 7 -9 -10 -11 -12 -13 -14 19 -16 17 -18 -19 -20 -21
leaf_value=0.16546585904896999 0.07009678660334849 0.093312803799614596 -0.14302808344994647 -0.054568866755771529 0.064962092435382354 -0.045410555678502378 0.036874047609568528 -0.027446251824053403 -0.05945498910518681 -0.048835471060066749 -0.0089853540815542088 -0.12069629695693385 -0.01763377561095154 -0.048839041342395778 -0.118989220249837 0.12817106025386332 0.040391366352982433 0.071702968812800097 0.13129779751418444 -0.087460974458712704
leaf_count=21 27 20 25 29 36 34 61 29 22 21 53 25 41 219 47 78 20 21 24 38
internal_value=0 0.568862 -0.361105 -0.303432 -0.414303 0.15974 0.303595 0.161873 -0.0112253 0.0859799 0.210721 -0.598638 -0.56308 -0.621312 -0.923744 1.00802 0.811023 1.16275 0.988973 -0.541887
internal_count=891 314 577 552 531 144 110 90 132 110 89 399 374 333 76 170 71 99 51 257
shrinkage=0.1


Tree=12
num_leaves=21
num_cat=0
split_feature=0 5 6 9 10 10 9 9 11 11 9 4 10 10 9 4 11 11 9 10
split_gain=28.0865 10.1384 5.33864 17.2967 5.82338 2.39748 1.34546 1.52174 1.29675 1.30457 1.88873 1.30856 2.50925 1.17432 1.16965 1.56723 1.40462 1.0608 0.986354 1.55838
threshold=1.0000000180025095e-35 2.5000000000000004 2.5000000000000004 -1.161322746814881 -0.1195508723494547 -0.148913286673649 1.7781837602245065 0.16433705047739164 -0.16541064045796935 -0.48111007206669099 -0.14306232280777309 1.0000000180025095e-35 -0.48969286730656975 -0.38247565803801414 -0.085424940316804712 1.0000000180025095e-35 -0.47408619826342291 0.43553257391193673 0.068274746325777638 -0.49053147702789096
decision_type=2 2 2 2 2 2 2 2 2 2 2 2 2 2 2 2 2 2 2 2
left_child=2 -2 3 -1 8 14 7 -6 9 10 -5 12 -11 18 15 16 -3 -9 19 -13
right_child=1 5 -4 4 6 -7 -8 17 -10 11 -12 13 -14 -15 -16 -17 -18 -19 -20 -21
leaf_value=0.15243834165731324 0.096321290254170799 0.017626224761305136 -0.13476107634969811 -0.033565061237636987 -0.016707776118047919 -0.064357363334158466 -0.055259107429779533 0.065385291165908493 -0.11837051810690014 -0.066091380356229842 -0.10963563588362042 0.0093217111782179507 0.051026167832130737 -0.099301144227127811 -0.019226063201868787 0.0073768983712423093 0.087491180970253657 0.0055385868270498373 -0.018953282368903424 -0.068165085714855925
leaf_count=21 170 20 25 34 57 23 22 25 25 24 60 20 21 33 22 48 31 28 59 123
internal_value=0 0.529785 -0.335137 -0.28143 -0.384165 0.145006 -0.010425 0.0772321 -0.560796 -0.526044 -0.795438 -0.440694 -0.0556549 -0.519569 0.239415 0.333629 0.589102 0.332817 -0.45021 -0.571517
internal_count=891 314 577 552 531 144 132 110 399 374 94 280 45 235 121 99 51 53 202 143
shrinkage=0.1


Tree=13
num_leaves=21
num_cat=0
split_feature=0 11 6 9 10 10 10 10 7 11 11 11 10 11 9 11 11 11 6 10
split_gain=23.5878 9.1029 4.61251 14.4909 5.03642 2.23018 2.3309 1.66266 1.26689 1.52654 1.37132 1.249 1.24067 1.82271 1.23714 1.01881 0.972664 0.966194 1.03905 0.965286
threshold=1.0000000180025095e-35 -0.31591700112292825 2.5000000000000004 -1.161322746814881 -0.1195508723494547 -0.23465383185463559 -0.33889312088829548 -0.48780524038282752 1.0000000180025095e-35 0.96220521936511094 0.49128501431209676 -0.16541064045796935 -0.48914822401817265 -0.45974136838121987 0.22197443296836 0.4031128811308235 -0.43218462951727371 0.9949691503386634 1.0000000180025095e-35 -0.49007039269131819
decision_type=2 2 2 2 2 2 2 2 2 2 2 2 2 2 2 2 2 2 2 2
left_child=2 5 3 -1 11 6 7 -2 9 10 15 12 14 -14 19 -6 -9 18 -3 -5
right_child=1 17 -4 4 8 -7 -8 16 -10 -11 -12 -13 13 -15 -16 -17 -18 -19 -20 -21
leaf_value=0.14185537169572635 0.038023713811504808 0.10299845621806616 -0.12754961255034877 -0.04463463081971502 0.034828254019953514 -0.039300957198246472 0.08636636968835025 -0.046477345303560874 -0.044268732785971432 -0.032732267963665171 0.064164195370384744 -0.11634164270318095 0.017798880716800209 -0.046850848444038612 -0.11579683257562493 -0.027043983769062963 0.017522278121406887 0.12249278982334377 0.055720058407865147 -0.097345818812241136
leaf_count=21 48 57 25 111 24 39 23 23 28 30 27 25 31 163 36 23 20 52 52 33
internal_value=0 0.493548 -0.311106 -0.261041 -0.356042 0.138721 0.267954 0.118089 -0.00959811 0.0941457 0.253369 -0.525171 -0.49129 -0.353478 -0.655433 0.0394517 -0.185949 0.929198 0.805599 -0.557086
internal_count=891 314 577 552 531 153 114 91 132 104 74 399 374 194 180 47 43 161 109 144
shrinkage=0.1


Tree=14
num_leaves=21
num_cat=0
split_feature=0 5 6 9 10 10 11 10 10 10 10 11 9 9 2 11 10 9 10 9
split_gain=19.7364 8.46947 4.01153 12.1952 4.36426 3.39097 2.8873 1.82344 2.08887 1.73207 1.69605 1.49652 1.28764 1.65996 2.31147 1.13947 0.999191 1.03699 1.03672 0.983874
threshold=1.0000000180025095e-35 2.5000000000000004 2.5000000000000004 -1.161322746814881 0.40416140198280853 0.67644076333825442 0.40065605786697484 -0.22483817185117627 -0.33889312088829548 -0.48780524038282752 -0.032342508472566228 -0.16541064045796935 0.22197443296836 -0.085424940316804712 1.0000000180025095e-35 -0.46583391282823045 -0.047401241019411795 0.6254361104051388 2.192120617417038 0.70228595372642999
decision_type=2 2 2 2 2 2 2 2 2 2 2 2 2 2 2 2 2 2 2 2
left_child=2 16 3 -1 6 -6 11 8 9 -3 -8 12 13 14 -5 -14 17 -2 -18 -17
right_child=1 7 -4 4 5 -7 10 -9 -10 -11 -12 -13 15 -15 -16 19 18 -19 -20 -21
leaf_value=0.13301613237466878 0.086938066208330278 0.034492442931557815 -0.12115621167116133 -0.059598487634887412 0.089342033599973267 -0.018038567402606492 0.027377406062679906 -0.039539346991429525 0.077781385919516749 -0.023998998241206975 -0.049845927531916689 -0.10775824823400229 -0.11461133258542143 0.0043349463471556984 0.011184187240348751 -0.094929588625712449 0.12058227305604784 0.022712420213017937 0.054294852217331081 -0.025190692432080993
leaf_count=21 51 48 25 208 20 38 36 34 23 39 22 34 43 43 30 22 78 20 21 35
internal_value=0 0.457618 -0.288278 -0.241597 -0.329174 0.210941 -0.425459 0.111078 0.224935 0.0785913 0.00856274 -0.518862 -0.473162 -0.38623 -0.480231 -0.746554 0.883989 0.667911 1.06392 -0.528378
internal_count=891 314 577 552 531 58 473 144 110 87 58 415 381 281 238 100 170 71 99 57
shrinkage=0.1


Tree=15
num_leaves=21
num_cat=0
split_feature=0 5 6 9 10 10 11 11 9 4 10 10 9 9 11 9 9 4 11 11
split_gain=16.5624 7.59167 3.49958 10.3115 3.6849 1.50521 1.17023 1.29155 1.84458 1.17136 2.06646 1.22206 1.09898 1.28623 1.04885 1.00453 0.985941 1.30181 1.13537 0.971644
threshold=1.0000000180025095e-35 2.5000000000000004 2.5000000000000004 -1.161322746814881 -0.1195508723494547 -0.148913286673649 -0.16541064045796935 -0.48111007206669099 -0.14306232280777309 1.0000000180025095e-35 -0.48969286730656975 -0.38247565803801414 1.7781837602245065 0.16433705047739164 0.9949691503386634 0.70228595372642999 -0.085424940316804712 1.0000000180025095e-35 -0.47408619826342291 0.51009786730849693
decision_type=2 2 2 2 2 2 2 2 2 2 2 2 2 2 2 2 2 2 2 2
left_child=2 14 3 -1 6 16 7 8 -5 10 -9 -11 13 -6 19 -15 17 18 -3 -2
right_child=1 5 -4 4 12 -7 -8 9 -10 11 -12 -13 -14 15 -16 -17 -18 -19 -20 -21
leaf_value=0.12545655970856431 0.082379768484611982 0.012954634436522387 -0.11540399481424053 -0.024960162145931341 -0.015825150090089446 -0.055658424243453158 -0.11308999200265513 -0.055811061764478455 -0.10410463268251574 -0.034372079021165611 0.054223096229473425 -0.093190788169303124 -0.050986691549525745 0.065920737824282621 0.11810860929795029 0.006546223614733216 -0.022268652400013085 0.0026227085745883128 0.076747902463035256 0.019899119201681387
leaf_count=21 96 20 25 34 57 23 25 24 60 202 21 33 22 21 52 32 22 48 31 22
internal_value=0 0.425602 -0.267565 -0.223983 -0.30476 0.10078 -0.457608 -0.425357 -0.710882 -0.337403 0.0375769 -0.416853 -0.0102716 0.0683696 0.845606 0.303215 0.173752 0.261807 0.500919 0.716776
internal_count=891 314 577 552 531 144 399 374 94 280 45 235 132 110 170 53 121 99 51 118
shrinkage=0.1


Tree=16
num_leaves=21
num_cat=0
split_feature=0 11 6 9 10 10 11 10 10 11 10 9 9 2 11 10 11 6 9 10
split_gain=13.8858 6.89234 3.06549 8.73961 3.29084 2.68524 2.24036 1.53856 1.67212 1.37749 1.34705 1.19346 1.50799 1.9982 1.15497 1.08834 1.01303 1.088 0.940991 0.77312
threshold=1.0000000180025095e-35 -0.31591700112292825 2.5000000000000004 -1.161322746814881 0.40416140198280853 0.67644076333825442 0.40065605786697484 -0.23465383185463559 -0.33889312088829548 -0.16541064045796935 -0.032342508472566228 0.22197443296836 -0.085424940316804712 1.0000000180025095e-35 -0.46583391282823045 -0.48780524038282752 0.9949691503386634 1.0000000180025095e-35 0.70228595372642999 -0.49141337632666326
decision_type=2 2 2 2 2 2 2 2 2 2 2 2 2 2 2 2 2 2 2 2
left_child=2 7 3 -1 6 -6 9 8 15 11 -8 12 13 19 -13 -2 17 -3 -16 -5
right_child=1 16 -4 4 5 -7 10 -9 -10 -11 -12 14 -14 -15 18 -17 -18 -19 -20 -21
leaf_value=0.11885626538175736 0.028707384630281624 0.09343177742665959 -0.11015826785766013 -0.029907143521614256 0.078589208109564948 -0.016672524438258982 0.024905799127565513 -0.036696821438142832 0.07148288850306185 -0.102551501552127 -0.044705289741182874 -0.11249238882615323 0.0085715722670775436 0.013080711864356455 -0.089901720790746778 -0.017608054226127042 0.11609300376191348 0.041978808629484804 -0.019404108850576904 -0.065939178472213963
leaf_count=21 48 57 25 72 20 38 36 39 23 34 22 43 43 30 22 43 52 52 35 136
internal_value=0 0.395902 -0.247785 -0.207133 -0.281408 0.185583 -0.369443 0.0922386 0.199102 -0.456205 0.0139569 -0.412149 -0.327275 -0.420943 -0.687989 0.0716249 0.816172 0.686464 -0.467611 -0.534917
internal_count=891 314 577 552 531 58 473 153 114 415 58 381 281 238 100 91 161 109 57 208
shrinkage=0.1


Tree=17
num_leaves=21
num_cat=0
split_feature=0 5 10 6 9 10 10 10 11 11 11 7 11 9 9 11 11 9 10 9
split_gain=11.6129 6.28386 2.74331 3.46066 6.22016 1.68335 2.14777 1.26135 4.41223 3.30555 1.24198 2.38586 1.59004 1.65308 1.82405 1.50609 2.20955 3.34491 1.33726 1.12104
threshold=1.0000000180025095e-35 2.5000000000000004 -0.48914822401817265 2.5000000000000004 -1.065260442663267 0.40416140198280853 0.67644076333825442 -0.36792029267083315 -0.46995848368193432 -0.47359341893315005 -0.45974136838121987 1.0000000180025095e-35 0.40065605786697484 -0.75786106937810238 -0.29676200945035541 -0.45728622925725582 -0.16541064045796935 0.22197443296836 -0.032342508472566228 0.22197443296836
decision_type=2 2 2 2 2 2 2 2 2 2 2 2 2 2 2 2 2 2 2 2
left_child=2 -2 19 4 -4 10 -7 9 -9 -3 -6 12 13 -12 -15 -16 17 -17 -14 -1
right_child=1 7 3 -5 5 6 -8 8 -10 -11 11 -13 18 14 15 16 -18 -19 -20 -21
leaf_value=-0.044671944787131768 0.077652224717399132 0.09170440784401318 0.11298652706097326 -0.10531458928160752 0.021030957672017087 0.069888037618205112 -0.015093510910773631 -0.072419411806512429 0.041185541747497445 -0.003590587760869349 0.03638085736400979 -0.12574286661374809 0.029074468155830365 -0.11457981279971029 -0.082363661126565541 0.058604735729038071 -0.094392512692604916 -0.056472069656987846 -0.04110421730254258 -0.11072525041698822
leaf_count=144 170 22 21 25 33 20 38 36 33 53 20 20 35 32 34 34 26 37 22 36
internal_value=0 0.366538 -0.229642 -0.126177 -0.0682436 -0.153843 0.166703 0.0754674 -0.150963 0.256362 -0.246615 -0.308531 -0.243496 -0.392108 -0.482924 -0.354922 -0.176588 0.0440274 0.0522117 -0.537628
internal_count=891 314 577 397 372 351 58 144 69 75 293 260 240 183 163 131 97 71 57 180
shrinkage=0.1


Tree=18
num_leaves=21
num_cat=0
split_feature=0 11 9 6 9 5 11 8 9 5 11 11 9 10 9 9 9 10 9 10
split_gain=9.70626 5.67812 2.5275 2.36046 6.32824 2.45288 3.05038 2.05367 1.99207 2.11772 1.67094 1.45366 1.7213 1.51378 1.87138 1.23681 1.52947 1.07785 2.64627 1.40489
threshold=1.0000000180025095e-35 -0.13859071279359397 -1.6800591892335965 2.5000000000000004 -1.161322746814881 1.5000000000000002 -0.16541064045796935 3.5000000000000004 0.47173642376255637 2.5000000000000004 -0.45974136838121987 -0.48111007206669099 -0.14306232280777309 -0.37366673239388398 -0.085424940316804712 -0.085424940316804712 0.22197443296836 -0.49141337632666326 -0.7002236868871341 -0.48570821271234493
decision_type=2 2 2 2 2 2 2 2 2 2 2 2 2 2 2 2 2 2 2 2
left_child=3 2 -2 4 -1 -6 11 8 9 -4 -11 12 -7 15 -15 17 -17 -13 -19 -20
right_child=1 -3 7 -5 5 6 -8 -9 -10 10 -12 13 -14 14 -16 16 -18 18 19 -21
leaf_value=0.1076795864118389 0.09210838741879418 0.08804815365413976 0.079616813125348226 -0.10079093799965673 0.0025900083701922085 -0.018175074098249547 -0.12791940345218453 -0.072744376428563795 -0.056694946367721759 0.026153867912663803 -0.034941753942852573 -0.0039102622828667303 -0.099063763445599529 0.060805094511384106 -0.039466339467659074 0.033657856086655731 -0.03666762663100212 0.0094554458183868824 -0.11659901585709953 -0.039973621704731337
leaf_count=21 20 117 40 25 118 34 31 22 20 68 27 35 56 28 25 31 56 30 54 33
internal_value=0 0.338807 0.134876 -0.212917 -0.177564 -0.240305 -0.360627 0.0487879 0.127394 0.221266 0.0844448 -0.297663 -0.625372 -0.207792 0.190423 -0.305931 -0.0647054 -0.470917 -0.606175 -0.87491
internal_count=891 314 197 577 552 531 413 177 155 135 95 382 90 292 53 239 87 152 117 87
shrinkage=0.1


Tree=19
num_leaves=21
num_cat=0
split_feature=0 11 9 6 9 10 8 9 5 10 11 11 10 11 9 8 9 10 9 9
split_gain=8.11602 5.05229 2.08871 2.07627 5.39291 2.14823 1.73011 1.61309 1.8657 1.5985 1.44098 1.35996 1.24527 1.08711 1.66679 1.22395 1.01976 0.913494 0.848396 1.48349
threshold=1.0000000180025095e-35 -0.13859071279359397 -1.6800591892335965 2.5000000000000004 -1.161322746814881 0.40416140198280853 3.5000000000000004 0.47173642376255637 2.5000000000000004 0.67644076333825442 0.40065605786697484 -0.45974136838121987 -0.17072620003723391 -0.48111007206669099 -0.14306232280777309 1.5000000000000002 -0.14306232280777309 -0.032342508472566228 -0.085424940316804712 0.22197443296836
decision_type=2 2 2 2 2 2 2 2 2 2 2 2 2 2 2 2 2 2 2 2
left_child=3 2 -2 4 -1 10 7 8 -4 -7 12 -10 13 14 -6 18 -3 -12 -15 -20
right_child=1 16 6 -5 5 9 -8 -9 11 -11 17 -13 -14 15 -16 -17 -18 -19 19 -21
leaf_value=0.10280968358834186 0.084467289754591557 0.042042582932776643 0.076003047420043601 -0.096522269051511955 -0.016560191837514653 0.060915006917176176 -0.068319555325853168 -0.050356196074241688 0.023664579272678576 -0.012311395893572616 0.020086204119701665 -0.031560453663980102 -0.084757612106781399 -0.042811888072804019 -0.096850042827976615 0.037683562932856608 0.10254109284570155 -0.037965994056207042 0.029744795258642043 -0.038584701123083549
leaf_count=21 20 36 40 25 34 20 22 20 68 38 36 27 41 165 60 21 81 22 31 63
internal_value=0 0.313982 0.123428 -0.196702 -0.163844 -0.221225 0.0447772 0.116361 0.202444 0.154303 -0.297266 0.0763792 -0.372262 -0.320159 -0.603457 -0.235478 0.843504 0.00986013 -0.292774 -0.0962859
internal_count=891 314 197 577 552 531 177 155 135 58 473 95 415 374 94 280 117 58 259 94
shrinkage=0.1


Tree=20
num_leaves=21
num_cat=0
split_feature=0 11 6 9 10 9 6 11 9 11 11 10 11 10 11 9 9 5 11 4
split_gain=6.7779 4.48061 1.82589 4.60124 1.86304 1.72662 1.61297 2.31119 2.11685 1.30886 2.11046 1.31246 1.26619 1.01849 0.927335 1.5855 1.00364 0.802392 1.47825 1.10937
threshold=1.0000000180025095e-35 -0.13859071279359397 2.5000000000000004 -1.161322746814881 -0.047401241019411795 -1.6800591892335965 1.0000000180025095e-35 -0.42977928479590172 -0.14306232280777309 0.88842585791475936 0.49128501431209676 0.94272200138081741 -0.42388400926738939 2.192120617417038 -0.48111007206669099 -0.14306232280777309 1.7013339169032153 1.5000000000000002 -0.16541064045796935 1.0000000180025095e-35
decision_type=2 2 2 2 2 2 2 2 2 2 2 2 2 2 2 2 2 2 2 2
left_child=2 5 3 -1 14 -2 7 8 -7 10 -6 -11 -8 -3 15 -5 17 -16 19 -19
right_child=1 13 -4 4 9 6 12 -9 -10 11 -12 -13 -14 -15 16 -17 -18 18 -20 -21
leaf_value=0.098281012986541655 0.077469175346649752 0.093441684680251977 -0.092456850341045449 -0.015073580543220812 -0.010944644868355563 0.036625221137014642 -0.00027624554641144256 0.067882714113061293 -0.040075230772209994 -0.067971985837968929 0.072549522568363459 0.01138960910869099 -0.068867395102710546 0.016901255052332906 0.017308723695721309 -0.094594083086060238 -0.084508711162551015 0.017479019738262488 -0.11895139515899206 -0.029430538055884255
leaf_count=21 20 96 25 34 34 31 39 47 35 20 26 22 25 21 23 61 20 42 22 227
internal_value=0 0.290645 -0.181676 -0.151107 -0.203652 0.112883 0.0410617 0.203705 -0.0245168 0.0511737 0.259138 -0.253467 -0.261577 0.806771 -0.302711 -0.575793 -0.238815 -0.200378 -0.253426 -0.208896
internal_count=891 314 577 552 531 197 177 113 66 102 60 42 64 117 429 95 334 314 291 269
shrinkage=0.1


Tree=21
num_leaves=21
num_cat=0
split_feature=0 5 10 6 9 11 11 10 9 10 10 10 10 10 9 11 10 11 10 9
split_gain=5.63416 4.03486 1.62971 2.0133 3.31731 1.25311 1.2977 1.61915 1.14474 1.09174 1.08602 1.01985 1.4024 1.21519 1.71473 1.21714 1.52842 1.24917 0.924502 1.964
threshold=1.0000000180025095e-35 2.5000000000000004 -0.48914822401817265 2.5000000000000004 -1.065260442663267 0.9949691503386634 0.51009786730849693 -0.12240295078943424 0.22197443296836 -0.49007039269131819 -0.49212614425306828 0.40416140198280853 0.67644076333825442 -0.4827302924774492 -0.29676200945035541 -0.40030605088112531 -0.10931540411815514 0.58761040550334009 -0.38792913806250023 1.086535170332886
decision_type=2 2 2 2 2 2 2 2 2 2 2 2 2 2 2 2 2 2 2 2
left_child=2 5 8 4 -4 6 7 -2 9 10 -1 13 -13 -6 -15 -16 18 -18 -17 -20
right_child=1 -3 3 -5 11 -7 -8 -9 -10 -11 -12 12 -14 14 15 16 17 -19 19 -21
leaf_value=-0.037131259007544583 0.03505410569553797 0.0044090592852898177 0.09401973477492212 -0.088553501409988106 0.017547835232409777 0.1105070816329754 -0.020128570064339085 0.11483383476867204 -0.10827440156148045 -0.084700290738214695 0.02826080529478488 0.057100132728235858 -0.011572055865137524 -0.078588997944229466 -0.062315799494706448 -0.03154082877210504 -0.074308736572704565 -0.0027751274175662594 0.058156784181407843 -0.038862169050448592
leaf_count=84 59 144 21 25 56 52 22 37 36 33 27 20 38 50 37 22 23 27 56 22
internal_value=0 0.26732 -0.167436 -0.0864968 -0.044391 0.6443 0.49179 0.631543 -0.422973 -0.331433 -0.204213 -0.103661 0.144781 -0.180221 -0.263573 -0.164707 -0.069621 -0.369843 0.150531 0.299253
internal_count=891 314 577 397 372 170 118 96 180 144 111 351 58 293 237 187 150 50 100 78
shrinkage=0.1


Tree=22
num_leaves=21
num_cat=0
split_feature=0 11 11 9 6 9 5 11 5 11 9 9 2 11 10 9 9 10 6 11
split_gain=4.6838 3.67526 1.71494 1.53447 1.411 3.35178 1.40755 2.87848 1.32201 1.13573 1.05402 2.08538 1.58816 1.10972 1.03956 0.989978 0.949122 1.894 1.13906 1.29895
threshold=1.0000000180025095e-35 -0.13859071279359397 -0.58210154122257585 -0.91156075602068476 2.5000000000000004 -1.161322746814881 1.5000000000000002 -0.16541064045796935 2.5000000000000004 -0.45974136838121987 0.22197443296836 0.068274746325777638 1.0000000180025095e-35 -0.46583391282823045 2.192120617417038 0.70228595372642999 1.7781837602245065 -0.10931540411815514 1.0000000180025095e-35 0.96220521936511094
decision_type=2 2 2 2 2 2 2 2 2 2 2 2 2 2 2 2 2 2 2 2
left_child=4 2 -2 -4 5 -1 16 10 -5 -10 11 12 -8 -12 -3 -15 17 -7 19 -19
right_child=1 14 3 8 -6 6 7 -9 9 -11 13 -13 -14 15 -16 -17 -18 18 -20 -21
leaf_value=0.089968552713517669 -0.055560021360442614 0.088313021096079761 0.065350326449819099 0.04889504935457413 -0.084779700430716087 0.076504018236036975 -0.031792421655171238 -0.12385506125672799 0.012672489400220827 -0.035538678029774055 -0.10829680133202389 0.055773207786883931 0.026493733621867341 -0.078765960486365541 0.0075089468080015813 -0.00025206148004751594 -0.044407431896005489 0.0052700637218873097 0.030254521126054996 -0.068545458011343083
leaf_count=21 20 96 30 48 25 22 231 31 63 36 39 20 35 22 21 35 22 26 28 20
internal_value=0 0.245889 0.0895195 0.163656 -0.15407 -0.127796 -0.171532 -0.269422 0.066255 -0.0503277 -0.207685 -0.130079 -0.214439 -0.507978 0.744997 -0.300187 0.0294543 0.114994 -0.0318133 -0.24223
internal_count=891 314 197 177 577 552 531 413 147 99 382 286 266 96 117 57 118 96 74 46
shrinkage=0.1


Tree=23
num_leaves=21
num_cat=0
split_feature=11 0 11 10 4 9 9 9 6 9 9 10 11 8 9 10 11 10 10 6
split_gain=4.47624 3.82452 2.77629 2.92552 2.06411 3.37649 3.04828 1.4513 1.34679 2.00936 1.35732 2.97291 1.20933 1.14969 0.931519 0.864296 3.58491 2.55825 1.23037 1.41328
threshold=2.2869917561933248 1.0000000180025095e-35 -0.46995848368193432 -0.36792029267083315 1.0000000180025095e-35 0.16433705047739164 -0.75786106937810238 0.52937380625352481 1.5000000000000002 -1.065260442663267 1.547634230260633 0.40416140198280853 -0.47408619826342291 1.5000000000000002 -0.14306232280777309 -0.10931540411815514 0.52449063903941873 -0.12563255461416215 -0.33138388930205925 1.0000000180025095e-35
decision_type=2 2 2 2 2 2 2 2 2 2 2 2 2 2 2 2 2 2 2 2
left_child=1 8 3 12 13 6 -6 -7 9 -1 11 15 -3 -4 -8 17 -17 18 19 -11
right_child=-2 2 4 -5 5 7 14 -9 -10 10 -12 -13 -14 -15 -16 16 -18 -19 -20 -21
leaf_value=0.069506645688660135 0.11850598171187653 0.055656220141631865 0.044100510467131378 -0.06363683226063252 0.060452738630731341 0.13823944551402509 -0.063276008794054345 0.045854834414948975 -0.070443369087633212 -0.024220531400099343 -0.05958244866111892 0.042152019716518718 -0.016855114201433152 0.12828044343019185 -0.0011525827352683608 -0.12670512091076522 0.0059138107830908329 0.061274284265794655 -0.086255985046958097 0.049646547286206343
leaf_count=20 27 22 21 38 34 24 35 37 39 302 50 38 20 34 30 21 23 26 28 22
internal_value=0 -0.0335927 0.197748 -0.135348 0.38445 0.238779 -0.0380818 0.790463 -0.172573 -0.138496 -0.173014 -0.125142 0.228807 0.879763 -0.360352 -0.215422 -0.510707 -0.158807 -0.235238 -0.185549
internal_count=891 864 295 80 215 160 99 61 569 530 510 460 42 55 65 422 44 378 352 324
shrinkage=0.1


Tree=24
num_leaves=21
num_cat=0
split_feature=11 0 11 7 4 9 9 9 11 9 10 11 11 9 9 8 7 11 9 10
split_gain=3.74399 3.17703 2.31905 2.6204 1.84216 2.88563 2.49258 1.39502 1.19779 1.59068 2.10018 1.41298 2.12713 1.52375 1.36765 1.1243 1.10875 1.72525 1.20128 2.46922
threshold=2.2869917561933248 1.0000000180025095e-35 -0.46995848368193432 1.0000000180025095e-35 1.0000000180025095e-35 0.16433705047739164 -0.75786106937810238 0.52937380625352481 -0.48111007206669099 -0.14306232280777309 -0.50265457218293264 0.96220521936511094 0.56874803879432878 1.547634230260633 1.086535170332886 1.5000000000000002 1.0000000180025095e-35 -0.42977928479590172 -0.3928243136019694 -0.42316484063902082
decision_type=2 2 2 2 2 2 2 2 2 2 2 2 2 2 2 2 2 2 2 2
left_child=1 8 3 -3 15 6 -6 -7 9 10 -1 12 13 14 16 -4 18 -18 19 -10
right_child=-2 2 4 -5 5 7 -8 -9 11 -11 -12 -13 -14 -15 -16 -17 17 -19 -20 -21
leaf_value=0.049807141347564893 0.11001052522913467 0.021591774578907971 0.04059594386624997 -0.06077995194442061 0.055592209973322419 0.13528553091714696 -0.032135682430624334 0.042054915637390083 -0.019416922174266115 -0.090109508942958938 -0.061903758591356842 -0.05369710538600591 0.055283786116736358 -0.074214999798329614 0.055136124014055279 0.12600694434266108 0.091295863550006295 -0.021745419510037264 -0.0078275322605573343 -0.14466156285163839
leaf_count=21 27 43 21 37 34 24 65 37 58 63 33 35 27 29 21 34 20 25 217 20
internal_value=0 -0.0307205 0.181811 -0.122387 0.355368 0.218889 -0.0339328 0.742396 -0.158509 -0.45311 -0.147225 -0.102854 -0.0498827 -0.114328 -0.0652701 0.837982 -0.113604 0.308606 -0.175318 -0.508752
internal_count=891 864 295 80 215 160 99 61 569 117 54 452 417 390 361 55 340 45 295 78
shrinkage=0.1


Tree=25
num_leaves=21
num_cat=0
split_feature=11 0 10 8 9 11 10 11 6 9 9 7 11 11 11 10 11 9 9 11
split_gain=3.12334 2.63476 1.99314 2.33333 2.10903 1.53543 1.49059 1.87829 1.11521 1.70748 4.05731 4.08827 2.90968 2.12505 1.70654 1.47409 1.43755 1.23293 1.71336 1.7985
threshold=2.2869917561933248 1.0000000180025095e-35 -0.017576735624285442 3.5000000000000004 0.52937380625352481 -0.37486071819066913 -0.22483817185117627 -0.48479530696246403 1.5000000000000002 -0.14306232280777309 -0.3928243136019694 1.0000000180025095e-35 -0.45728622925725582 -0.49800721594420716 0.88842585791475936 -0.48914822401817265 0.49128501431209676 1.4707843869393418 0.068274746325777638 -0.22877640362105411
decision_type=2 2 2 2 2 2 2 2 2 2 2 2 2 2 2 2 2 2 2 2
left_child=1 8 4 -4 5 6 7 -3 9 10 11 12 15 -11 16 -1 17 18 -15 -20
right_child=-2 2 3 -5 -6 -7 -8 -9 -10 13 -12 -13 -14 14 -16 -17 -18 -19 19 -21
leaf_value=-0.037516320860704479 0.10184021090334015 0.058610689254686536 0.10858647434216476 -0.014412181819761819 -0.056278133462234842 0.054596386760717902 -0.064070944011631978 -0.0065696497842644063 -0.064565528590424234 -0.10892266388693345 0.086016658297469906 0.075186532821891694 -0.10964772187327664 -0.033737698782943991 -0.07396884322477594 0.055569592630711206 0.035435574166351264 -0.073926448353042601 -0.017489638999290062 0.054967575521153125
leaf_count=44 27 28 64 23 30 62 20 68 39 42 42 28 39 129 26 21 28 30 60 41
internal_value=0 -0.0281691 0.167183 0.66267 0.0740572 0.165136 0.0383949 0.130356 -0.145056 -0.114197 0.121134 -0.137668 -0.430193 -0.220899 -0.168591 -0.0608344 -0.100875 -0.180921 -0.115105 0.14173
internal_count=891 864 295 87 208 178 116 96 569 530 174 132 104 356 314 65 288 260 230 101
shrinkage=0.1


Tree=26
num_leaves=21
num_cat=0
split_feature=11 0 11 7 4 9 9 9 8 11 9 10 9 10 10 10 10 7 9 10
split_gain=2.60079 2.1924 1.9053 1.82354 1.81009 2.51163 1.94661 1.32609 0.983203 0.961085 1.31275 1.72614 1.1105 1.04134 1.14974 1.15995 1.07515 0.929086 1.10184 1.51612
threshold=2.2869917561933248 1.0000000180025095e-35 -0.47192409947940245 1.0000000180025095e-35 1.0000000180025095e-35 0.16433705047739164 -0.75786106937810238 0.52937380625352481 1.5000000000000002 -0.48111007206669099 -0.14306232280777309 -0.50265457218293264 1.547634230260633 0.40416140198280853 0.078943921076397833 -0.056210166663541956 0.80916157413169576 1.0000000180025095e-35 0.068274746325777638 -0.49141337632666326
decision_type=2 2 2 2 2 2 2 2 2 2 2 2 2 2 2 2 2 2 2 2
left_child=1 9 3 -3 8 6 -6 -7 -4 10 11 -1 13 14 15 17 -15 18 19 -11
right_child=-2 2 4 -5 5 7 -8 -9 -10 12 -12 -13 -14 16 -16 -17 -18 -19 -20 -21
leaf_value=0.042758652228531223 0.094064147411966517 0.015564586283980894 0.042269487728482658 -0.054720290177873304 0.046608623570822051 0.13204061195948191 -0.031376469747457052 0.037533209014783936 0.12428436227872219 0.024991520525119808 -0.085372403119377771 -0.058587246317036684 -0.04876273392476338 0.061051473720143357 -0.068522323914980449 0.044491854791615576 -0.0058166836408254192 0.043227671948479547 0.00925216577274828 -0.041151291069801102
leaf_count=21 27 42 22 35 35 24 65 38 34 37 63 33 46 22 22 21 27 25 82 170
internal_value=0 -0.0260787 0.153393 -0.128692 0.312076 0.176882 -0.0582676 0.676827 0.803574 -0.133602 -0.406625 -0.13757 -0.0840548 -0.038296 -0.103026 -0.0585159 0.259565 -0.114417 -0.160227 -0.287585
internal_count=891 864 295 77 218 162 100 62 56 569 117 54 452 406 357 335 49 314 289 207
shrinkage=0.1


Tree=27
num_leaves=21
num_cat=0
split_feature=11 8 9 8 0 10 9 9 6 10 10 11 11 9 9 5 10 10 10 11
split_gain=2.16082 1.88599 4.62577 2.16231 1.9069 3.1911 1.31099 1.1098 1.40357 1.29538 2.55017 0.913468 1.92007 0.90857 0.820593 0.910067 1.74371 1.08032 0.598061 1.927
threshold=2.0696831449304827 4.5000000000000009 -1.6800591892335965 6.5000000000000009 1.0000000180025095e-35 -0.047401241019411795 0.52937380625352481 -0.21991216612906425 1.0000000180025095e-35 -0.473795525038403 -0.36792029267083315 0.88842585791475936 0.56874803879432878 -0.29676200945035541 1.7013339169032153 1.5000000000000002 -0.10931540411815514 -0.17072620003723391 -0.48914822401817265 -0.45974136838121987
decision_type=2 2 2 2 2 2 2 2 2 2 2 2 2 2 2 2 2 2 2 2
left_child=1 2 -1 -3 11 6 7 8 -6 -9 -11 12 14 -7 15 16 -4 18 -17 -20
right_child=-2 3 4 -5 5 13 -8 9 -10 10 -12 -13 -14 -15 -16 17 -18 -19 19 -21
leaf_value=0.091786469238171797 0.075757844234081745 -0.1183054630906783 0.069870092621606497 0.0018884254734824728 0.010914940567430967 0.035165916829309453 -0.049714112502266955 -0.0080767169285392293 -0.06069176947995384 0.13826228974351873 0.019184136725394648 -0.052862252472142969 0.047646477014579761 0.12059886180478313 -0.075054922718415143 -0.030101346703389077 -0.022159624238846685 -0.076418685319450105 0.049393868274694684 -0.020995421470946723
leaf_count=37 33 28 22 21 46 27 27 28 20 20 38 32 25 51 25 169 22 31 33 156
internal_value=0 -0.0269649 0.00407565 -0.572851 -0.0439916 0.136627 0.0177096 0.0980066 -0.121034 0.282698 0.522154 -0.149513 -0.111361 0.863919 -0.168286 -0.141347 0.156659 -0.202422 -0.156079 -0.0484348
internal_count=891 858 809 49 772 257 179 152 66 86 58 515 483 78 458 433 44 389 358 189
shrinkage=0.1


Tree=28
num_leaves=21
num_cat=0
split_feature=11 8 9 8 0 10 9 9 10 10 10 9 9 9 11 11 11 10 5 11
split_gain=1.83616 1.62301 3.88835 1.99826 1.62378 2.9697 1.04972 0.908208 1.28199 1.07486 2.23196 0.798854 0.70537 3.40783 1.69755 1.33958 1.30473 2.49348 1.68965 0.95865
threshold=2.2869917561933248 4.5000000000000009 -1.6800591892335965 6.5000000000000009 1.0000000180025095e-35 -0.047401241019411795 0.52937380625352481 -0.21991216612906425 -0.38792913806250023 -0.473795525038403 -0.36792029267083315 -0.29676200945035541 -0.14306232280777309 -0.3928243136019694 -0.49800721594420716 0.88842585791475936 -0.45728622925725582 -0.48914822401817265 2.5000000000000004 0.49128501431209676
decision_type=2 2 2 2 2 2 2 2 2 2 2 2 2 2 2 2 2 2 2 2
left_child=1 2 -1 -3 12 6 7 8 -6 -9 -11 -7 13 16 -14 19 17 -4 -18 -16
right_child=-2 3 4 -5 5 11 -8 9 -10 10 -12 -13 14 -15 15 -17 18 -19 -20 -21
leaf_value=0.086193463814463162 0.080709521240461574 -0.11638530426379556 -0.042512338974845208 0.0016984342591050295 0.014866047356978634 0.039125287082759384 -0.044031736746355743 -0.0072544234614490711 -0.050520471361166219 0.13067599716276732 0.01732743618655206 0.11919084977289368 -0.10725855472104838 0.069691137098040409 -0.016728218935307581 -0.067399885508568555 -0.017251704915522168 0.068586753087784474 -0.13558143679450882 0.027104381356015866
leaf_count=37 27 28 47 21 36 29 27 28 30 20 38 51 41 42 259 27 27 25 23 28
internal_value=0 -0.0220811 0.00633149 -0.539275 -0.0370757 0.129997 0.0163067 0.0889027 -0.108718 0.257103 0.478013 0.841173 -0.134616 0.02618 -0.204344 -0.15979 -0.240815 -0.00376395 -0.645186 -0.0973774
internal_count=891 864 815 49 778 259 179 152 66 86 58 80 519 164 355 314 122 72 50 287
shrinkage=0.1


Tree=29
num_leaves=21
num_cat=0
split_feature=11 9 10 11 10 9 10 2 10 10 10 11 10 9 10 0 10 11 11 9
split_gain=1.53354 5.06658 4.4963 3.89458 3.06754 1.5486 1.50104 1.38066 2.63897 1.61241 2.02973 1.0499 1.46704 0.913603 1.38993 0.8525 0.767658 3.41598 1.27641 2.1947
threshold=-0.47192409947940245 0.16433705047739164 -0.22483817185117627 -0.468656783896026 -0.3568884975613042 -1.6032093459123054 0.40416140198280853 1.0000000180025095e-35 1.3642920143499035 0.56544830022221459 0.95882975113008417 -0.53695977154519436 -0.49212614425306828 1.3939345436180506 0.078943921076397833 1.0000000180025095e-35 -0.48914822401817265 -0.45974136838121987 -0.31591700112292825 0.52937380625352481
decision_type=2 2 2 2 2 2 2 2 2 2 2 2 2 2 2 2 2 2 2 2
left_child=1 2 4 -2 11 -5 13 9 -9 -8 -11 -1 15 14 16 -13 -7 -18 -19 -20
right_child=3 -3 -4 5 -6 6 7 8 -10 10 -12 12 -14 -15 -16 -17 17 18 19 -21
leaf_value=0.04203995190985494 0.13298254290768582 -0.14718489059601136 -0.12793608599056802 0.078926673983716777 0.090656104184304837 -0.041383699489527657 0.056103751636327241 0.12071480339057379 -0.0039562590552029075 -0.082272511271666127 0.029313845608178846 -0.024147927081386789 -0.071134835894187398 0.028758789303921423 -0.08501306564399437 0.026554672835922933 0.075320258699270837 -0.031208092280854357 0.023181158898384558 -0.053947060518011458
leaf_count=25 20 45 26 25 21 56 21 32 29 29 35 72 22 50 22 28 25 148 127 33
internal_value=0 -0.19421 -0.0632258 0.0693789 0.0714134 0.031448 0.0056072 0.267222 0.616133 0.0350479 -0.264499 -0.0771548 -0.177689 -0.0694211 -0.112482 -0.0202515 -0.0769512 -0.0319136 -0.129405 0.0465999
internal_count=891 239 194 652 168 632 607 146 61 85 64 147 122 461 411 100 389 333 308 160
shrinkage=0.1


Tree=30
num_leaves=21
num_cat=0
split_feature=11 11 9 9 10 11 0 5 10 10 9 9 4 10 2 9 9 9 11 10
split_gain=1.42256 1.28925 2.43308 2.24072 1.22442 2.26573 1.13349 2.22138 1.3002 1.75766 1.13693 1.93198 0.772269 0.751925 1.27544 0.861345 1.00907 2.2618 1.58669 1.92839
threshold=2.2869917561933248 -0.58210154122257585 -1.6032093459123054 -0.14306232280777309 -0.50479388269650705 -0.49874402714377791 1.0000000180025095e-35 2.5000000000000004 -0.48780524038282752 -0.33889312088829548 -0.46967415692326059 -0.085424940316804712 1.0000000180025095e-35 -0.4924613867947249 1.0000000180025095e-35 1.547634230260633 -0.3928243136019694 -0.14306232280777309 -0.45728622925725582 -0.48914822401817265
decision_type=2 2 2 2 2 2 2 2 2 2 2 2 2 2 2 2 2 2 2 2
left_child=1 3 -3 -1 -4 -6 13 10 12 -10 -8 -12 -9 14 -7 16 18 -18 19 -15
right_child=-2 2 4 -5 5 6 7 8 9 -11 11 -13 -14 15 -16 -17 17 -19 -20 -21
leaf_value=-0.0091272888362359025 0.072017044341119843 0.075680865644689982 -0.083207210468936366 -0.15204229947703929 0.095515723523286855 -0.11047923755726451 0.11036868875514146 0.046016185249305758 -0.065596373468364041 0.0095218094307572797 -0.039653325296757809 0.063309684050960241 -0.0094470597979358206 -0.065098675754930016 -0.0042881345801388795 -0.044794717275801421 0.067984433979099937 -0.00581348017972222 -0.071432193016792475 0.061345992572616338
leaf_count=26 27 39 25 21 21 27 30 27 28 32 32 78 20 22 23 46 35 256 53 23
internal_value=0 -0.0201536 0.00494911 -0.496293 -0.0266335 -0.011174 -0.0354758 0.112468 -0.0665414 -0.282578 0.48394 0.315065 0.200439 -0.116883 -0.505554 -0.0850162 -0.0427178 0.0282925 -0.325498 0.079088
internal_count=891 864 817 47 778 753 732 247 107 60 140 110 47 485 50 435 389 291 98 45
shrinkage=0.1


Tree=31
num_leaves=21
num_cat=0
split_feature=8 9 8 10 0 11 6 9 10 11 10 10 10 10 9 10 9 10 10 9
split_gain=1.35608 2.61774 1.81108 1.58091 2.56925 1.21397 1.3663 0.754845 0.745401 0.804528 0.546266 3.3224 1.66081 1.81926 1.62752 4.59603 1.57279 5.83619 1.319 1.17886
threshold=4.5000000000000009 -1.6800591892335965 6.5000000000000009 -0.047401241019411795 1.0000000180025095e-35 0.60401594894850263 1.0000000180025095e-35 -0.29676200945035541 -0.50940875299967192 -0.50827423792350579 -0.36792029267083315 -0.34489124420117862 -0.29405115905505602 -0.21800043208261261 -0.75786106937810238 -0.48914822401817265 -0.29676200945035541 -0.49141337632666326 -0.473795525038403 0.52937380625352481
decision_type=2 2 2 2 2 2 2 2 2 2 2 2 2 2 2 2 2 2 2 2
left_child=1 -1 -2 8 5 -5 -7 -6 -3 -10 14 -12 -13 -14 15 -11 17 -16 -18 -15
right_child=2 3 -4 4 7 6 -8 -9 9 10 11 12 13 19 16 -17 18 -19 -20 -21
leaf_value=0.075653410577089505 -0.11392928914377237 -0.075804761263102566 0.0034042248168316747 0.037077713628754942 0.037471404718048787 -0.045151522421620134 0.029266501522009027 0.11362671191401071 0.038815919772872597 -0.036666863453030031 -0.11469951252887381 0.041195927281595296 -0.092540389885427746 0.01775935583432357 0.03573233175387576 0.13426714075467924 -0.011544947360078949 -0.11232894135029355 0.034890468197074309 -0.044578572215939374
leaf_count=38 28 25 21 36 32 37 20 67 26 23 23 34 22 58 36 25 181 53 70 36
internal_value=0 0.0229157 -0.495057 -0.011468 0.221427 0.0321954 -0.176961 0.824218 -0.0799436 -0.0655945 -0.089229 -0.210139 -0.0654977 -0.229274 -0.0258686 0.446652 -0.0994848 -0.428548 0.0185857 -0.0640196
internal_count=891 842 49 804 192 93 57 99 612 587 561 173 150 116 388 48 340 89 251 94
shrinkage=0.1


Tree=32
num_leaves=21
num_cat=0
split_feature=11 9 9 11 10 11 0 5 9 9 3 9 9 11 9 11 11 10 11 9
split_gain=1.24757 2.00391 1.9195 1.0993 1.02174 1.47325 0.754511 1.85082 1.17609 1.77393 1.06109 0.949153 2.23237 1.78131 1.67647 0.941128 0.723422 1.06371 1.82976 1.4882
threshold=-0.58210154122257585 -0.14306232280777309 -1.7569090325548877 2.0696831449304827 -0.50479388269650705 -0.49810506447151021 1.0000000180025095e-35 2.5000000000000004 -0.46967415692326059 -0.085424940316804712 1.0000000180025095e-35 -0.3928243136019694 -0.7002236868871341 -0.45728622925725582 -0.14306232280777309 0.88842585791475936 0.56874803879432878 -0.10931540411815514 -0.22877640362105411 1.086535170332886
decision_type=2 2 2 2 2 2 2 2 2 2 2 2 2 2 2 2 2 2 2 2
left_child=1 -1 -2 4 -4 -6 11 8 -8 -10 -9 12 13 -7 -13 16 17 18 -16 -20
right_child=2 -3 3 -5 5 6 7 10 9 -11 -12 14 -14 -15 15 -17 -18 -19 19 -21
leaf_value=-0.010847401885164311 0.075478668940430482 -0.15208067920033738 -0.07798235930543633 0.056655932877791665 0.05939286878984789 0.047045294268929692 0.10931162168557028 -0.021305820722987607 -0.041878885736435556 0.05866691398661035 0.027813904278696878 0.050113785919553004 -0.091626880785973933 -0.056411887885409719 -0.018651809880135158 -0.057031956182364563 0.031733253147514816 -0.044700395546947859 0.068779706679623909 -0.024531388390834227
leaf_count=26 34 21 25 32 36 30 31 74 31 78 31 38 52 29 171 25 22 39 44 22
internal_value=0 -0.48206 0.021651 -0.00380743 -0.023199 -0.00915048 -0.0350363 0.0881925 0.439635 0.263423 -0.0759989 -0.102702 -0.36532 -0.00153269 -0.0408282 -0.106261 -0.0581826 -0.108585 -0.015312 0.389246
internal_count=891 47 844 810 778 753 717 245 140 109 105 472 111 59 361 323 298 276 237 66
shrinkage=0.1


Tree=33
num_leaves=21
num_cat=0
split_feature=10 10 9 11 9 0 11 8 9 10 10 6 11 9 9 11 10 10 11 2
split_gain=1.25272 2.63572 1.30767 3.97211 1.5533 0.90965 1.3163 0.786289 0.92247 0.623487 1.26569 0.586377 1.41699 0.927966 0.52638 0.525651 3.82005 1.29025 1.30858 0.860575
threshold=2.0711030935507986 1.1194461642861773 -1.8337588758761789 -0.46995848368193432 -1.3726598159484318 1.0000000180025095e-35 0.52449063903941873 2.5000000000000004 0.52937380625352481 0.56544830022221459 0.39195474787594237 1.0000000180025095e-35 -0.42977928479590172 -0.14306232280777309 -0.14306232280777309 0.56874803879432878 -0.10931540411815514 -0.12240295078943424 -0.16541064045796935 1.0000000180025095e-35
decision_type=2 2 2 2 2 2 2 2 2 2 2 2 2 2 2 2 2 2 2 2
left_child=1 2 3 -1 -4 9 7 8 11 10 15 12 14 -13 -7 16 17 18 19 -6
right_child=-2 -3 4 -5 5 6 -8 -9 -10 -11 -12 13 -14 -15 -16 -17 -18 -19 -20 -21
leaf_value=-0.025378507669122943 -0.061325677711136596 0.094047361552906716 -0.080683649683437109 0.1558721402402922 -0.014821816635561211 0.023940588839682298 0.10616468639944998 0.050165792641925271 -0.041928199265394137 -0.046601819305053097 0.042821872085773149 -0.049398133706233194 0.071797842909677945 0.018264423991121343 -0.017917420620624788 0.019099759007444293 -0.12070492485413947 0.050199127739037855 -0.1072840078277852 0.027071320650712563
leaf_count=21 34 29 23 21 332 28 32 36 29 26 22 21 41 27 29 29 24 20 25 42
internal_value=0 0.0167786 -0.0107722 0.487663 -0.0368588 -0.0157502 0.115947 0.0744451 0.0171577 -0.0900051 -0.0621284 0.0917681 0.20293 -0.126269 0.0312348 -0.108741 -0.14342 -0.0641807 -0.118205 -0.0826087
internal_count=891 857 828 42 786 763 243 211 175 520 494 146 98 48 57 472 443 419 399 374
shrinkage=0.1


Tree=34
num_leaves=21
num_cat=0
split_feature=11 10 8 9 8 10 11 10 4 9 10 10 10 3 11 7 10 8 11 2
split_gain=1.08114 1.17108 1.05803 3.05417 1.6769 0.993499 0.811489 1.36734 1.05302 1.29199 0.542745 0.722456 0.476303 0.615268 1.39423 0.76442 2.73592 1.40586 1.28797 1.2184
threshold=2.0696831449304827 1.608256971849217 4.5000000000000009 -1.6800591892335965 6.5000000000000009 1.0291330316451173 0.96220521936511094 -0.047401241019411795 1.0000000180025095e-35 -0.085424940316804712 -0.50940875299967192 -0.50265457218293264 -0.49363624579206206 1.0000000180025095e-35 -0.47192409947940245 1.0000000180025095e-35 -0.18280701234918381 1.5000000000000002 -0.46809150234371527 1.0000000180025095e-35
decision_type=2 2 2 2 2 2 2 2 2 2 2 2 2 2 2 2 2 2 2 2
left_child=1 2 3 -1 -4 6 7 10 -9 -10 -5 -12 -13 15 -15 17 18 19 -17 -14
right_child=-2 -3 4 5 -6 -7 -8 8 9 -11 11 12 13 14 -16 16 -18 -19 -20 -21
leaf_value=0.087100511148700599 0.056072080330238562 -0.082196391688119097 -0.11221280103629522 -0.067830238034021592 0.0046898820941291622 0.061817842049559063 -0.049382228949457076 0.085162306081818309 0.061983917907261391 -0.020444003525154332 0.032604549094481274 -0.049662862829706382 -0.0018797741091832302 -0.0082623159538493182 0.076210009213352886 0.0097069322754474302 -0.066775859986437522 -0.054604941672152178 0.095872513791526129 -0.059864597470539682
leaf_count=35 33 21 28 25 21 23 36 22 27 33 45 27 301 45 20 20 25 54 23 27
internal_value=0 -0.0202837 -0.00604697 0.0173812 -0.453996 -0.0199642 -0.0369254 -0.0170615 0.318857 0.132676 -0.0645649 -0.0527851 -0.078676 -0.0621469 0.178683 -0.100667 0.15243 -0.15349 0.490304 -0.0777838
internal_count=891 858 837 788 49 753 730 694 82 60 612 587 542 515 65 450 68 382 43 328
shrinkage=0.1


Tree=35
num_leaves=21
num_cat=0
split_feature=10 10 11 9 9 10 11 0 5 10 10 10 11 10 2 10 10 11 9 9
split_gain=1.02302 1.96209 0.988159 2.66962 1.76666 0.87159 1.27863 0.662082 1.54279 1.1509 0.996734 1.28803 0.933326 0.784298 1.01392 0.644786 1.23843 1.15003 1.33971 0.719323
threshold=2.0711030935507986 1.1194461642861773 -0.58210154122257585 -1.7569090325548877 -0.14306232280777309 -0.50479388269650705 -0.49874402714377791 1.0000000180025095e-35 2.5000000000000004 -0.047401241019411795 -0.48780524038282752 -0.33889312088829548 -0.22877640362105411 -0.4924613867947249 1.0000000180025095e-35 -0.49141337632666326 -0.48914822401817265 -0.45080296435698713 -0.52731153941422892 -0.14306232280777309
decision_type=2 2 2 2 2 2 2 2 2 2 2 2 2 2 2 2 2 2 2 2
left_child=1 2 4 -4 -1 -5 -7 13 9 12 -10 -12 -9 14 -8 -15 -17 -18 -19 -20
right_child=-2 -3 3 5 -6 6 7 8 10 -11 11 -13 -14 15 -16 16 17 18 19 -21
leaf_value=-0.0098617772368847917 -0.055026050654408222 0.08102017305545646 0.095967749746043898 -0.07327737882465328 -0.14837635283367404 0.069990641627567393 -0.10901005634962833 0.073645964718062479 0.018890445197011763 0.10529924356704259 -0.056670892449048604 0.0084629124166792948 -0.0053260116047021576 0.033198637749206658 -0.010988108346547665 -0.061820973166202102 0.022953443409032975 -0.079123685820889578 0.033957467901978698 -0.013162543781227505
leaf_count=26 34 29 32 25 21 24 27 24 47 56 28 32 42 38 23 50 86 33 35 179
internal_value=0 0.0157023 -0.00850922 0.0142818 -0.446533 -0.0157304 -0.00240132 -0.0227366 0.0949124 0.44885 -0.0463112 -0.238381 0.232447 -0.0874142 -0.490637 -0.0527702 -0.0851831 -0.0364596 -0.135415 -0.0712663
internal_count=891 857 828 781 47 749 724 700 229 122 107 60 66 471 50 421 383 333 247 214
shrinkage=0.1


Tree=36
num_leaves=21
num_cat=0
split_feature=8 11 6 11 9 11 7 10 11 11 10 10 9 1 9 9 11 10 10 9
split_gain=0.96994 1.87946 1.60441 1.15867 3.77959 3.21358 2.40564 2.01456 1.75287 1.39745 1.13286 1.229 1.13721 2.36987 1.19653 3.00489 2.17992 1.76964 0.790812 1.44089
threshold=4.5000000000000009 -0.60926629652835051 3.5000000000000004 -0.47192409947940245 0.068274746325777638 -0.4671094803769274 1.0000000180025095e-35 -0.48914822401817265 -0.45974136838121987 -0.40914778527597434 2.0711030935507986 1.1194461642861773 -0.75786106937810238 1.0000000180025095e-35 1.3939345436180506 1.086535170332886 0.4031128811308235 -0.40038747575919859 0.40416140198280853 -0.14306232280777309
decision_type=2 2 2 2 2 2 2 2 2 2 2 2 2 2 2 2 2 2 2 2
left_child=1 -1 -2 4 6 -5 -3 -7 -9 -10 11 12 13 -11 15 17 -16 -14 19 -19
right_child=2 3 -4 5 -6 7 -8 8 9 10 -12 -13 14 -15 16 -17 -18 18 -20 -21
leaf_value=0.092685962819769416 0.0049927748007998545 0.012515009585528354 -0.11156884096254067 0.084140615125364485 -0.129111490335033 -0.080647339300797205 -0.069857320208956603 0.062839278510021315 -0.030250343632632251 0.13780447493582956 -0.048951296042557595 0.07326928211746124 -0.057519999625683098 -0.021874008690870535 0.10924002750204631 -0.10216753983241843 -0.0022976861814555994 -0.053499233087843816 0.057280231371113412 0.018382095568926112
leaf_count=24 23 126 26 34 38 39 27 25 102 26 34 29 35 20 27 21 37 34 37 127
internal_value=0 0.0193166 -0.438646 -0.00151285 -0.191977 0.0610781 -0.0489354 0.00478167 0.0411769 -0.00453523 0.0728759 0.114763 0.070325 0.598039 0.0187144 -0.0703742 0.371832 0.0336261 0.139789 0.0614533
internal_count=891 842 49 818 191 627 153 593 554 529 427 393 364 46 318 254 64 233 198 161
shrinkage=0.1


Tree=37
num_leaves=21
num_cat=0
split_feature=11 10 10 11 9 9 11 9 10 9 10 6 9 11 11 2 11 9 11 9
split_gain=1.03127 1.10753 1.4133 0.839435 2.22489 1.46041 0.755325 0.552669 3.28841 0.733083 0.884832 2.4197 1.46066 3.74068 1.76801 1.78477 1.24218 0.749233 1.12288 0.639499
threshold=2.2869917561933248 1.3642920143499035 0.95882975113008417 -0.58210154122257585 -1.6032093459123054 -0.14306232280777309 -0.50827423792350579 -0.83471091269939357 -0.35734958189787697 -0.7002236868871341 -0.34489124420117862 1.0000000180025095e-35 -0.29676200945035541 -0.4711389534651399 -0.47634496667682696 1.0000000180025095e-35 -0.37486071819066913 -0.29676200945035541 0.96220521936511094 1.3939345436180506
decision_type=2 2 2 2 2 2 2 2 2 2 2 2 2 2 2 2 2 2 2 2
left_child=1 2 3 5 -5 -1 -6 8 -8 -9 11 12 13 -11 15 -14 -12 -18 19 -19
right_child=-2 -3 -4 4 6 -7 7 9 -10 10 16 -13 14 -15 -16 -17 17 18 -20 -21
leaf_value=-0.010939757298065116 0.063783884954232942 -0.059269929821948189 0.091927233635842195 0.083813804026818928 0.050456348071681568 -0.13994649081677044 0.016586206321698521 0.041155801297692841 -0.11855823601861191 0.0160866419563843 0.043728972165191948 -0.098675567241544887 -0.17543694739687907 -0.12350365135728902 0.012780055653966883 -0.014736753416252912 0.051350236585570121 -0.0094747003490892184 -0.069616733221942936 0.030872924523662311
leaf_count=26 27 33 21 37 29 21 37 34 26 32 46 23 20 40 211 20 25 122 24 37
internal_value=0 -0.0176821 0.00138709 -0.0143626 0.006975 -0.423676 -0.0223275 -0.0385734 -0.28752 -0.0126389 -0.0349306 -0.136968 -0.0648038 -0.448167 0.0399584 -0.664684 0.0828038 -0.0196667 -0.0726381 0.00199022
internal_count=891 864 831 810 763 47 726 697 63 634 600 346 323 72 251 40 254 208 183 159
shrinkage=0.1


Tree=38
num_leaves=21
num_cat=0
split_feature=8 11 8 11 9 11 9 10 11 9 11 10 10 9 1 11 9 2 9 9
split_gain=0.900464 1.65995 1.5459 0.935425 3.25856 2.46613 2.07256 1.75858 1.45253 1.26988 1.19583 0.937524 0.956487 0.891348 2.12814 0.873672 1.24628 1.06635 0.818779 2.49304
threshold=4.5000000000000009 -0.60926629652835051 6.5000000000000009 -0.47192409947940245 0.068274746325777638 -0.4671094803769274 -0.60416138273552011 -0.48914822401817265 -0.45974136838121987 -0.98841059934197595 -0.40030605088112531 2.0711030935507986 1.1194461642861773 -0.75786106937810238 1.0000000180025095e-35 -0.47359341893315005 -0.14306232280777309 1.0000000180025095e-35 1.3939345436180506 1.086535170332886
decision_type=2 2 2 2 2 2 2 2 2 2 2 2 2 2 2 2 2 2 2 2
left_child=1 -1 -2 4 6 -5 9 -7 -9 -3 -10 12 13 14 -12 16 -8 -18 19 -15
right_child=2 3 -4 5 -6 7 15 8 10 -11 11 -13 -14 18 -16 -17 17 -19 -20 -21
leaf_value=0.087637923223973332 -0.11119563550761445 -0.0082179619233735401 0.0053730155662156838 0.073527691231157863 -0.12279251709130337 -0.077741825673485337 0.048037325491927546 0.057073440685657707 -0.027846481325632375 -0.093779300896863232 0.13559465657204925 -0.044003626076188573 0.065269815112885474 0.0042758311518194146 -0.020940505276495772 0.04927371154375329 -0.074557900707920552 0.012560715976900028 0.031333002479754207 -0.093271123179588744
leaf_count=24 28 22 21 34 38 39 24 25 107 24 25 34 29 229 20 35 27 21 64 21
internal_value=0 0.0181442 -0.430608 -0.00152391 -0.173667 0.055 -0.0436012 0.00490928 0.0382562 -0.490969 -0.00393638 0.0687765 0.107681 0.067793 0.552195 0.175402 -0.0184593 -0.301855 0.0229094 -0.0522302
internal_count=891 842 49 818 191 627 153 593 554 46 529 422 388 359 45 107 72 48 314 250
shrinkage=0.1


Tree=39
num_leaves=21
num_cat=0
split_feature=11 10 10 10 10 8 9 10 11 10 10 11 9 10 10 4 10 6 9 10
split_gain=0.953261 1.02223 1.05807 0.80675 1.52391 2.13787 1.89929 0.49234 1.03716 1.72164 1.45693 0.759375 0.531035 1.95618 1.12242 2.06776 2.34463 1.17321 0.810683 2.48306
threshold=2.0696831449304827 1.3642920143499035 0.95882975113008417 0.56544830022221459 0.40416140198280853 4.5000000000000009 -1.6800591892335965 0.11170507059768733 0.56874803879432878 -0.10931540411815514 -0.12240295078943424 -1.0000000180025095e-35 -0.83471091269939357 -0.38792913806250023 -0.34489124420117862 1.0000000180025095e-35 -0.23465383185463559 1.0000000180025095e-35 -0.29676200945035541 -0.49363624579206206
decision_type=2 2 2 2 2 2 2 2 2 2 2 2 2 2 2 2 2 2 2 2
left_child=1 2 3 4 5 6 -1 8 9 10 11 12 13 -8 17 -16 -17 18 19 -14
right_child=-2 -3 -4 -5 -6 -7 7 -9 -10 -11 -12 -13 14 -15 15 16 -18 -19 -20 -21
leaf_value=0.072057413154242758 0.053022426182431019 -0.060561093986306096 0.079399824863647397 -0.047343705251535168 0.059871550998605319 -0.10938576577439976 0.0097333262406784082 -0.047210249695528672 0.044720122002725557 -0.066898447303110883 0.056059495340194165 -0.066640652974792422 0.044489616483557121 -0.090796212742070295 0.085243800681501863 0.049070598997622394 -0.067879699445315272 -0.05963953313398862 0.0070278150159073759 -0.058016632965836451
leaf_count=35 33 29 21 39 27 30 38 26 24 31 25 24 27 20 24 26 32 27 279 74
internal_value=0 -0.0198644 -0.0022457 -0.0160646 0.00259695 -0.0255526 -0.0024761 -0.033421 -0.0196336 -0.0477843 -0.0105497 -0.046875 -0.0283103 -0.262299 0.00709316 0.29257 -0.0419252 -0.0635212 -0.0141981 -0.249085
internal_count=891 858 829 808 769 742 712 677 651 627 596 571 547 58 489 82 58 407 380 101
shrinkage=0.1


Tree=40
num_leaves=21
num_cat=0
split_feature=11 9 10 11 9 11 0 5 9 9 10 9 11 11 9 9 10 10 11 9
split_gain=0.859239 1.11789 0.80924 1.02213 1.22702 0.753417 0.598281 1.07075 0.973016 1.43114 0.734829 1.55562 0.719733 0.838533 1.08107 2.0257 0.713895 3.91651 1.17547 3.26361
threshold=-0.58210154122257585 -0.14306232280777309 -0.50479388269650705 -0.49874402714377791 -1.6032093459123054 2.0696831449304827 1.0000000180025095e-35 2.5000000000000004 -0.46967415692326059 -0.085424940316804712 -0.49212614425306828 -0.29676200945035541 0.88842585791475936 0.49128501431209676 1.4707843869393418 1.086535170332886 0.40416140198280853 -0.10931540411815514 -0.22877640362105411 0.068274746325777638
decision_type=2 2 2 2 2 2 2 2 2 2 2 2 2 2 2 2 2 2 2 2
left_child=1 -1 -2 -4 -5 6 12 8 -8 -10 -9 -12 13 14 15 16 17 18 -6 -20
right_child=2 -3 3 4 5 -7 7 10 9 -11 11 -13 -14 -15 -16 -17 -18 -19 19 -21
leaf_value=-0.015314049621894116 -0.0695112690090538 -0.13264430563360924 0.059154733113301917 0.074687569407231411 -0.015387567668935573 0.047084895259477844 0.10859719699174071 0.027295308136432991 -0.037491761413998348 0.05374086403734795 -0.052681769050003768 0.011626027217588776 -0.044642869712554351 0.029173844003872476 -0.066361815234363589 0.080313896410994345 0.032240491381835892 -0.13601613378611196 -0.033391965705302465 0.11039052657614264
leaf_count=26 25 21 32 29 266 32 29 28 31 78 31 48 32 31 30 20 21 20 38 23
internal_value=0 -0.428411 0.0175164 0.0292076 0.0101873 -0.00783145 -0.0252753 0.0878972 0.372504 0.224474 -0.0358605 -0.148171 -0.0859995 -0.0507544 -0.0981933 -0.0560156 -0.111908 -0.153408 -0.0636374 0.323475
internal_count=891 47 844 819 787 758 726 245 138 109 107 79 481 449 418 388 368 347 327 61
shrinkage=0.1


Tree=41
num_leaves=21
num_cat=0
split_feature=8 11 6 11 9 11 10 9 11 9 11 11 9 10 9 11 11 10 9 9
split_gain=0.756556 1.33068 1.29954 0.780926 2.95662 2.03832 1.47825 1.45803 1.28853 1.15922 0.89753 1.00997 0.815801 0.783337 1.46198 0.893338 1.19103 0.851044 0.640886 1.91222
threshold=4.5000000000000009 -0.60926629652835051 3.5000000000000004 -0.47192409947940245 0.16433705047739164 -0.4671094803769274 -0.48914822401817265 -0.75786106937810238 -0.45974136838121987 -0.3928243136019694 -0.40914778527597434 -0.37731754145451785 -0.75786106937810238 2.0711030935507986 -0.91156075602068476 1.2112969185326365 0.96220521936511094 0.94272200138081741 0.52937380625352481 0.16433705047739164
decision_type=2 2 2 2 2 2 2 2 2 2 2 2 2 2 2 2 2 2 2 2
left_child=1 -1 -2 4 7 -5 -7 -3 -8 -9 12 -12 -10 14 -13 16 18 -17 19 -16
right_child=2 3 -4 5 -6 6 8 9 10 -11 11 13 -14 -15 15 17 -18 -19 -20 -21
leaf_value=0.07929683144514485 0.0027035461917956465 -0.049739740795899046 -0.10955801819541565 0.066891642482784869 -0.14306796714218145 -0.074156681253457937 0.053426370715250408 0.059396639804204225 0.02614827559138715 -0.0051546666273433002 0.063881678401883912 0.10284363863597411 -0.038555292385916831 -0.044719295097722211 -0.0033462563264906996 0.0029892159866995362 -0.085823322860182336 0.090845131473215893 -0.016906288147296462 0.07422139123615222
leaf_count=24 23 37 26 34 34 39 25 27 22 93 24 27 80 34 144 21 21 20 95 41
internal_value=0 0.0161145 -0.411025 -0.00170096 -0.160745 0.0505392 0.00395058 -0.0605633 0.0340873 0.0943889 -0.00664958 0.0559361 -0.251892 0.0187431 0.0571333 0.0199309 -0.0342704 0.442904 0.00757875 0.117955
internal_count=891 842 49 818 191 627 593 157 554 120 529 427 102 403 369 342 301 41 280 185
shrinkage=0.1


Tree=42
num_leaves=21
num_cat=0
split_feature=11 11 10 11 9 11 0 11 10 2 11 11 9 9 9 11 9 9 11 11
split_gain=0.763785 1.04779 0.6548 0.950812 0.941633 0.650667 0.494011 1.01763 0.6586 0.917712 0.724005 0.55732 0.984855 1.37748 0.834623 0.712694 1.10016 1.33768 2.81479 4.0643
threshold=-0.58210154122257585 -0.62485764254623877 -0.50479388269650705 -0.49874402714377791 -1.6032093459123054 2.0696831449304827 1.0000000180025095e-35 0.9949691503386634 -0.4924613867947249 1.0000000180025095e-35 0.88842585791475936 0.49128501431209676 1.4707843869393418 0.93283548369030345 0.47173642376255637 -0.4711389534651399 0.068274746325777638 -0.7002236868871341 -0.45875985165639732 -0.37486071819066913
decision_type=2 2 2 2 2 2 2 2 2 2 2 2 2 2 2 2 2 2 2 2
left_child=1 -1 -2 -4 -5 6 8 -8 9 -6 11 12 13 14 15 -10 17 -17 -19 -20
right_child=2 -3 3 4 5 -7 7 -9 10 -11 -12 -13 -14 -15 -16 16 -18 18 19 -21
leaf_value=0.018909607160880693 -0.064284335786808519 -0.080784538580509838 0.057035932281494839 0.067977609418283166 -0.10854876236459508 0.04385615305891627 0.0044891219006345665 0.10476167291649854 0.031814947279942551 -0.011109175427159678 -0.041474136232325098 0.026782025444694615 -0.060775747527124883 0.056301183363128587 -0.05724882571254819 0.028306840679932738 0.028726024970698046 -0.092987769113263674 0.088968988082831907 -0.047302634132591725
leaf_count=26 25 21 32 29 27 32 214 31 40 23 32 31 29 27 28 45 41 67 25 66
internal_value=0 -0.409952 0.016368 0.0267706 0.00816341 -0.00726202 -0.023688 0.0800991 -0.0792327 -0.45971 -0.0482228 -0.0099507 -0.0528834 -0.00903378 -0.0732247 -0.0236604 -0.0916172 -0.205072 -0.344206 -0.0306387
internal_count=891 47 844 819 787 758 726 245 481 50 431 399 368 339 312 284 244 203 158 91
shrinkage=0.1


Tree=43
num_leaves=21
num_cat=0
split_feature=8 8 8 10 7 10 9 10 11 6 9 9 1 5 11 10 10 10 10 9
split_gain=0.76102 1.21183 1.13265 2.93234 2.54854 0.962777 0.787391 0.760297 0.802485 0.60135 0.46677 0.752602 0.574016 0.54524 0.477973 1.44691 0.955151 1.06435 1.21188 1.08106
threshold=4.5000000000000009 6.5000000000000009 2.5000000000000004 -0.22483817185117627 1.0000000180025095e-35 -0.50479388269650705 0.068274746325777638 -0.50265457218293264 -0.49550205786566659 1.5000000000000002 1.3939345436180506 1.0096853270115949 1.0000000180025095e-35 1.5000000000000002 0.49128501431209676 0.67644076333825442 -0.10931540411815514 -0.12563255461416215 -0.29405115905505602 -0.75786106937810238
decision_type=2 2 2 2 2 2 2 2 2 2 2 2 2 2 2 2 2 2 2 2
left_child=2 -2 5 -4 -5 -1 -6 -7 -9 10 11 14 -12 -14 16 -16 17 18 19 -10
right_child=1 -3 3 4 6 7 -8 8 9 -11 12 -13 13 -15 15 -17 -18 -19 -20 -21
leaf_value=-0.073521926120756767 -0.10956600484222778 0.00080124503381746696 0.13287163738618751 0.094691592824904927 -0.056063615335228793 0.043968597934531325 0.016269206344624736 -0.041420523667923044 0.03948014175007971 0.048546342976866219 0.075935353103540659 -0.04706807777261382 0.023705543088198323 -0.044925904993862897 0.052718433032757223 -0.035304013545659874 -0.059780642650946736 0.050643106854807142 -0.060167769084214784 -0.0077595443411590213
leaf_count=35 28 21 20 28 37 28 22 41 49 22 21 29 29 21 36 37 29 31 33 294
internal_value=0 -0.419579 0.0158115 0.318799 0.0528641 -0.0235889 -0.276966 -0.00747521 -0.0281845 -0.00169129 -0.0185024 -0.0475206 0.208121 0.0788734 -0.019255 0.206888 -0.0550894 -0.0205226 -0.0627201 -0.011982
internal_count=891 49 842 107 87 735 59 700 672 631 609 538 71 50 509 73 436 407 376 343
shrinkage=0.1


Tree=44
num_leaves=21
num_cat=0
split_feature=10 10 10 10 8 9 11 11 9 11 10 11 9 11 11 9 9 11 9 9
split_gain=0.714978 0.980476 0.872271 1.10497 1.70603 1.30149 0.612757 0.436185 1.72516 0.931994 0.418732 0.888974 0.736346 1.46568 0.316835 1.3895 2.04054 0.766426 1.26831 1.33154
threshold=2.0711030935507986 0.84909570596320549 0.56544830022221459 0.40416140198280853 4.5000000000000009 -1.6800591892335965 1.2112969185326365 0.43553257391193673 -0.085424940316804712 0.39373121148892903 -0.50940875299967192 -0.50827423792350579 1.3939345436180506 1.0000000180025095e-35 -0.31591700112292825 0.37567411961094238 -0.14306232280777309 -0.44480944733519878 0.6254361104051388 1.0000000180025095e-35
decision_type=2 2 2 2 2 2 2 2 2 2 2 2 2 2 2 2 2 2 2 2
left_child=1 2 3 4 5 -1 -3 9 -9 10 -7 -12 13 14 17 16 -16 18 19 -13
right_child=-2 6 -4 -5 -6 7 -8 8 -10 -11 11 12 -14 -15 15 -17 -18 -19 -20 -21
leaf_value=0.063609539566296197 -0.046135186838312713 0.014903049617158597 -0.061310887624190881 0.051767536306964547 -0.1076914076942251 -0.058482936817358278 0.084086366668535042 0.033802297003210857 -0.062760860274749156 0.050748201746107981 0.048892318219768464 0.0035620780299931059 0.045317306673344361 -0.082518943836745684 -0.035706996463915334 -0.047743913890080446 0.07312861626246811 -0.030266158238633857 0.078439389513118282 -0.052880608970365034
leaf_count=35 34 39 25 27 30 25 24 21 30 20 26 235 34 29 36 26 43 92 21 39
internal_value=0 0.0133841 -0.0112616 0.00486297 -0.019752 -0.000431738 0.431347 -0.0253579 -0.2503 -0.00079301 -0.0265586 -0.0154849 -0.0420211 -0.0655882 -0.0335518 0.125021 0.347974 -0.0681247 0.000748016 -0.0433796
internal_count=891 857 794 769 742 712 63 677 51 626 606 581 555 521 492 105 79 387 295 274
shrinkage=0.1


Tree=45
num_leaves=21
num_cat=0
split_feature=11 11 10 9 10 11 10 10 11 10 11 10 10 11 9 9 10 11 9 10
split_gain=0.758479 0.945947 0.626335 1.52622 0.778347 0.759396 0.674659 0.986578 0.483741 0.456859 0.6618 1.21591 0.839213 0.568727 0.398309 0.68452 1.28337 0.832541 2.08257 0.800778
threshold=-0.58210154122257585 -0.62485764254623877 2.0711030935507986 -1.6032093459123054 0.84909570596320549 -0.50827423792350579 0.56544830022221459 0.40416140198280853 1.2112969185326365 0.078943921076397833 0.56874803879432878 -0.10931540411815514 -0.12240295078943424 1.0000000180025095e-35 1.547634230260633 0.47173642376255637 -0.4827302924774492 -0.31591700112292825 -0.14306232280777309 -0.29405115905505602
decision_type=2 2 2 2 2 2 2 2 2 2 2 2 2 2 2 2 2 2 2 2
left_child=1 -1 3 -2 5 -5 7 9 -6 10 11 12 13 14 15 17 -17 19 -19 -7
right_child=2 -3 -4 4 8 6 -8 -9 -10 -11 -12 -13 -14 -15 -16 16 -18 18 -20 -21
leaf_value=0.016232857712606255 0.080717165650684361 -0.080928021731594135 -0.041073951711073114 0.053768337944071723 0.01342113280382063 -0.0022030331630235249 -0.056477423928295106 0.047141116659410162 0.075321734919071126 -0.045822186248228446 0.034813315823826005 -0.060887333131985355 0.043299041647598013 -0.059599521632170693 0.041793482552473622 0.032878412912827282 -0.066032702394761431 -0.049997972408649276 0.067821557689412185 -0.056912546457795726
leaf_count=26 38 21 34 29 39 319 25 27 23 33 24 28 24 24 25 22 38 31 41 20
internal_value=0 -0.419641 0.0161393 0.0317791 0.0100296 -0.0136481 -0.030287 -0.0145787 0.383455 -0.0405842 -0.0258209 -0.0505494 -0.0181071 -0.0474314 -0.0300272 -0.0454272 -0.35894 -0.00631132 0.312951 -0.0588577
internal_count=891 47 844 810 772 710 681 656 62 629 596 572 544 520 496 471 60 411 72 339
shrinkage=0.1


Tree=46
num_leaves=21
num_cat=0
split_feature=11 10 10 8 8 10 10 6 10 10 10 11 7 9 9 11 11 11 9 10
split_gain=0.647331 0.992991 0.662111 0.614363 1.39593 2.00286 1.97122 1.0187 0.800975 0.709355 0.590804 0.774962 0.495724 2.31029 0.665539 1.2267 2.84231 0.920004 0.713771 0.710095
threshold=2.0696831449304827 1.3642920143499035 0.95882975113008417 4.5000000000000009 2.5000000000000004 -0.22483817185117627 -0.089978050544160623 3.5000000000000004 -0.50479388269650705 0.50911345894287352 -0.50265457218293264 -0.49746610179924239 1.0000000180025095e-35 -0.29676200945035541 -0.29676200945035541 -0.45728622925725582 -0.37486071819066913 -0.47359341893315005 -0.14306232280777309 -0.10931540411815514
decision_type=2 2 2 2 2 2 2 2 2 2 2 2 2 2 2 2 2 2 2 2
left_child=1 2 3 4 8 -6 -7 -5 -1 10 -10 -12 14 -14 15 -13 -17 -16 -19 -20
right_child=-2 -3 -4 7 5 6 -8 -9 9 -11 11 12 13 -15 17 16 -18 18 19 -21
leaf_value=-0.069664883515610773 0.044286975871793956 -0.060360405929537148 0.064604389392399306 -0.00097184141998569854 0.12355191374452396 -0.054621601142080749 0.069804905854889354 -0.10790166088517024 0.038810516112398531 -0.064081748179569284 -0.045960853226343898 0.0016467149228826371 0.087105113280682947 -0.024888958946296703 -0.075484764433469409 -0.13454369728445509 0.0078600791613415103 0.048540075687574319 0.0090891451960676811 -0.022518229107300808
leaf_count=35 33 29 21 23 20 23 26 26 28 21 24 73 39 31 20 25 39 26 268 61
internal_value=0 -0.0171379 0.000768192 -0.0104145 0.00697909 0.427026 0.085224 -0.402028 -0.0315032 -0.0162814 -0.00159558 -0.0216587 0.00296448 0.246047 -0.0270084 -0.212667 -0.578326 0.032175 0.0576265 0.0201225
internal_count=891 858 829 808 759 69 49 49 690 655 634 606 582 70 512 137 64 375 355 329
shrinkage=0.1


Tree=47
num_leaves=21
num_cat=0
split_feature=11 9 0 11 11 10 6 11 11 11 9 10 7 9 9 11 10 11 9 7
split_gain=0.678667 0.822923 0.57757 1.57009 2.10895 1.33596 0.518366 1.51873 1.11722 1.0729 0.473353 0.456279 0.437279 0.337177 0.518823 0.711987 1.02032 1.13961 1.60601 1.2368
threshold=-0.58210154122257585 -0.46967415692326059 1.0000000180025095e-35 0.9949691503386634 0.51009786730849693 -0.12240295078943424 1.0000000180025095e-35 -0.42977928479590172 -0.47359341893315005 -0.42388400926738939 -1.5263595025910142 -0.38792913806250023 1.5000000000000002 -0.83471091269939357 -0.7002236868871341 -0.49874402714377791 -0.4924613867947249 -0.4711389534651399 -0.3928243136019694 1.0000000180025095e-35
decision_type=2 2 2 2 2 2 2 2 2 2 2 2 2 2 2 2 2 2 2 2
left_child=1 -1 10 4 5 6 7 8 -4 -8 -2 -9 -7 -12 -15 -16 -17 -18 -19 -20
right_child=2 -3 3 -5 -6 12 9 11 -10 -11 13 -13 -14 14 15 16 17 18 19 -21
leaf_value=-0.075843520945056322 0.045284643865673595 0.017101486146598881 0.034906299794220767 0.10521332755089166 -0.11781381932510132 0.11219315574650313 0.019523267213605696 0.089818982962709959 -0.028056344275394846 -0.048874888426066694 -0.03577960228452582 0.032663729943126829 0.037465432033667707 0.037057718402434922 0.074389170234936922 -0.059856341270454694 0.042369249841637202 -0.086149227232146075 0.0014034285860822541 -0.05801839733354576
leaf_count=23 28 24 22 52 22 29 25 20 40 30 36 34 20 28 25 46 40 40 274 33
internal_value=0 -0.403675 0.0151596 0.121258 0.0702811 0.124133 0.0522528 0.151955 -0.0480748 -0.140744 -0.0432686 0.579392 0.742178 -0.0591488 -0.0397562 -0.0628844 -0.0799371 -0.0411185 -0.0931163 -0.0438294
internal_count=891 47 844 294 242 220 171 116 62 55 550 54 49 522 486 458 433 387 347 307
shrinkage=0.1


Tree=48
num_leaves=21
num_cat=0
split_feature=11 11 11 10 0 11 9 9 11 10 10 10 9 11 9 9 11 10 10 9
split_gain=0.559905 0.830585 2.04584 1.00219 0.68823 0.545305 1.17471 0.89888 0.581399 0.480672 0.628605 0.441505 0.725068 0.375461 0.415764 1.29493 0.503688 0.442306 0.937474 0.603762
threshold=2.0696831449304827 0.88842585791475936 1.2112969185326365 0.84909570596320549 1.0000000180025095e-35 -0.58210154122257585 -1.6032093459123054 -0.14306232280777309 -0.50827423792350579 0.61339402408526589 -0.047401241019411795 1.0000000180025095e-35 0.52937380625352481 0.4031128811308235 0.93283548369030345 0.52937380625352481 -0.38881179616782158 -0.21800043208261261 -0.29405115905505602 -0.7002236868871341
decision_type=2 2 2 2 2 2 2 2 2 2 2 2 2 2 2 2 2 2 2 2
left_child=1 3 -3 5 -4 7 -7 -1 -8 10 13 -12 -13 14 15 17 -16 18 19 -10
right_child=-2 2 4 -5 -6 6 8 -9 9 -11 11 12 -14 -15 16 -17 -18 -19 -20 -21
leaf_value=-0.010476999629223811 0.041929008286210837 -0.11326708006312147 -0.011402250091266159 0.074505841390141408 0.10453275424250748 0.072665565352110328 0.047403469187787491 -0.1223881626442343 0.021657619734024788 -0.059536879733777248 0.053399391858587601 0.036284797700877454 -0.028889011153531444 -0.031355089954000957 -0.014538075039996053 -0.074600186538443192 0.046017743772108377 0.02702798430486715 -0.065393929080862487 -0.007387518192414815
leaf_count=26 33 29 20 20 20 37 29 21 68 20 20 36 20 27 26 26 35 46 20 312
internal_value=0 -0.0156993 -0.370116 0.00930059 0.0642416 -0.00625502 0.0113974 -0.366495 -0.00869364 -0.023841 -0.0129317 0.220001 0.0800474 -0.0486048 -0.0270032 -0.0539372 0.227484 -0.019825 -0.0489908 -0.0163658
internal_count=891 858 69 789 40 769 722 47 685 656 636 76 56 560 533 472 61 446 400 380
shrinkage=0.1


Tree=49
num_leaves=21
num_cat=0
split_feature=8 8 11 11 9 7 11 10 11 0 8 9 0 10 9 9 10 7 10 11
split_gain=0.573096 0.9949 0.932178 0.630841 2.70432 2.02999 1.3076 1.12734 1.02161 0.687785 0.657215 0.899351 0.705938 2.30403 1.50676 0.772813 0.90433 0.756607 0.542963 1.58415
threshold=4.5000000000000009 6.5000000000000009 -0.60926629652835051 -0.47192409947940245 0.068274746325777638 1.0000000180025095e-35 -0.4671094803769274 -0.48914822401817265 -0.45974136838121987 1.0000000180025095e-35 3.5000000000000004 -1.5263595025910142 1.0000000180025095e-35 -0.047401241019411795 -0.14306232280777309 0.52937380625352481 -0.32525992419425998 1.0000000180025095e-35 -0.50265457218293264 -0.47359341893315005
decision_type=2 2 2 2 2 2 2 2 2 2 2 2 2 2 2 2 2 2 2 2
left_child=2 -2 -1 4 5 9 -5 -8 -9 18 11 -10 17 14 -14 16 -16 -13 -4 -20
right_child=1 -3 3 6 -6 -7 7 8 10 -11 -12 12 13 -15 15 -17 -18 -19 19 -21
leaf_value=0.068550442085936678 -0.10790954929505214 0.00036338504332209372 0.023130712959173905 0.053899168094149276 -0.11691270102765663 -0.066487049056267164 -0.068252029536192083 0.048086553936512462 0.10614243644396648 0.034293218992544477 -0.049834224679975399 -0.0023012304989099637 -0.045202766693976326 0.10455398896760844 -0.0018805138832045207 -0.011219926451039921 0.084082042298810181 -0.049076547891460258 -0.097276805073135075 0.018311552500563408
leaf_count=24 28 21 34 34 38 27 39 25 21 39 24 268 33 84 20 24 22 33 29 24
internal_value=0 -0.389396 0.0135087 -0.00146331 -0.146369 -0.0291837 0.0465711 0.00755934 0.0334606 0.128559 -0.00410194 0.0196091 0.00347774 0.181538 0.0111663 0.259976 0.504113 -0.0717544 -0.0692506 -0.283405
internal_count=891 49 842 818 191 153 627 593 554 126 529 505 484 183 99 66 42 301 87 53
shrinkage=0.1


Tree=50
num_leaves=21
num_cat=0
split_feature=2 8 11 11 11 9 11 7 9 9 9 7 11 9 10 11 11 0 10 9
split_gain=0.534393 1.55842 1.36916 2.35623 0.912857 1.30743 1.00699 0.815346 0.673846 1.80351 0.650484 1.34285 1.00167 1.68355 1.25659 0.93586 1.89553 1.01072 1.00125 0.808275
threshold=1.0000000180025095e-35 2.5000000000000004 -0.55444695383132669 -0.62485764254623877 0.71257358495053968 -1.6032093459123054 0.51009786730849693 1.0000000180025095e-35 -0.21991216612906425 -0.83471091269939357 -0.21991216612906425 1.5000000000000002 -0.44480944733519878 -0.75786106937810238 -0.48780524038282752 -0.50630783619409137 -0.47408619826342291 1.0000000180025095e-35 -0.473795525038403 1.547634230260633
decision_type=2 2 2 2 2 2 2 2 2 2 2 2 2 2 2 2 2 2 2 2
left_child=2 8 3 -1 5 -4 10 -6 9 -2 12 15 14 -14 -7 -12 -17 19 -19 -18
right_child=1 -3 4 -5 7 6 -8 -9 -10 -11 11 -13 13 -15 -16 16 17 18 -20 -21
leaf_value=0.029777734897797906 -0.028745466617101697 0.081935203498081463 0.087900341732585444 -0.1398508255292675 -0.017120958039295423 -0.021381098318983074 0.064602130104580421 -0.10212389710459234 -0.011501545141167351 0.080400260465532947 0.087168677359528796 -0.076897148049088926 0.010399713136016998 -0.095095362053404728 0.047264417758333045 -0.11080745842604967 0.004626622746259623 -0.0045888814300535045 0.055977871495470059 -0.052755797919860264
leaf_count=25 22 26 28 22 38 77 20 20 96 24 21 21 32 47 34 23 195 23 69 28
internal_value=0 0.141988 -0.0407078 -0.666725 -0.0115803 0.0224501 -0.000760319 -0.385452 0.028928 0.297372 -0.0250766 0.0444578 -0.176676 -0.507859 -0.0208021 0.0834813 0.0540683 0.0959814 0.338711 -0.0148779
internal_count=891 168 723 47 676 618 590 58 142 46 570 380 190 79 111 359 338 315 92 223
shrinkage=0.1


Tree=51
num_leaves=21
num_cat=0
split_feature=11 10 10 10 11 11 9 11 10 11 11 11 11 11 11 11 4 9 11 10
split_gain=0.484672 0.681945 0.567644 0.471983 0.50771 1.05096 1.54049 0.342657 0.399558 0.628757 0.60291 0.734413 0.533669 0.313504 0.966284 0.626478 0.729511 0.590814 1.80696 0.90984
threshold=2.0696831449304827 1.3642920143499035 0.95882975113008417 -0.50940875299967192 -0.58210154122257585 -0.50827423792350579 -1.6032093459123054 0.96220521936511094 0.046519020831124261 0.49128501431209676 0.43553257391193673 0.39373121148892903 1.0000000180025095e-35 -0.40030605088112531 -0.44480944733519878 -0.36630747695807492 1.0000000180025095e-35 -0.3928243136019694 -0.49800721594420716 -0.4924613867947249
decision_type=2 2 2 2 2 2 2 2 2 2 2 2 2 2 2 2 2 2 2 2
left_child=1 2 3 -1 -5 -6 -7 8 10 -10 11 12 13 14 17 -15 -17 19 -19 -8
right_child=-2 -3 -4 4 5 6 7 -9 9 -11 -12 -13 -14 15 -16 16 -18 18 -20 -21
leaf_value=-0.060285175681721308 0.039441183563970986 -0.049993909743560494 0.061157631377266625 -0.04128539526974917 0.063529650480887351 0.10584744130961748 0.058626583080342735 -0.037910606649128806 0.00095212714258647256 0.062083139299049843 -0.036752159460731813 0.044570249187102534 -0.057020432674594307 0.048481136610775348 -0.053617005014152765 0.049443308232400257 -0.009890339200621984 -0.099596304695797486 -0.0023869012778770411 -0.0011532673738251116
leaf_count=25 33 29 21 30 32 26 28 30 55 20 29 20 24 23 40 24 125 24 188 65
internal_value=0 -0.0146352 0.000667444 -0.00977043 -0.000677948 0.0136113 -0.00667927 -0.0246048 -0.0124229 0.202153 -0.0366972 -0.010252 -0.0354932 -0.0189871 -0.0675001 0.0911873 0.00243002 -0.0168716 -0.10743 0.160641
internal_count=891 858 829 808 783 753 721 695 665 75 590 561 541 517 345 172 149 305 212 93
shrinkage=0.1


Tree=52
num_leaves=21
num_cat=0
split_feature=8 6 11 9 0 10 9 9 11 11 10 2 10 11 11 10 6 11 10 10
split_gain=0.48048 0.968871 0.789152 0.536711 0.516789 2.03132 0.441818 0.403557 0.372572 0.459054 0.816927 0.586157 1.20888 0.970993 0.660083 1.2734 0.964762 2.51307 0.519764 1.42057
threshold=4.5000000000000009 3.5000000000000004 -0.60926629652835051 -1.9874585625187613 1.0000000180025095e-35 -0.047401241019411795 -0.29676200945035541 0.52937380625352481 -0.50827423792350579 -0.48111007206669099 -0.50265457218293264 1.0000000180025095e-35 0.41523547993542925 0.43553257391193673 0.39373121148892903 -0.38247565803801414 1.0000000180025095e-35 -0.2936157891832803 -0.48914822401817265 -0.49007039269131819
decision_type=2 2 2 2 2 2 2 2 2 2 2 2 2 2 2 2 2 2 2 2
left_child=2 -2 -1 -4 8 7 -7 -6 -5 10 -10 12 14 -13 15 18 -17 -18 19 -11
right_child=1 -3 3 4 5 6 -8 -9 9 11 -12 13 -14 -15 -16 16 17 -19 -20 -21
leaf_value=0.063604577262899406 0.0024502336756483446 -0.10731704967551788 -0.059501576262116364 0.055383209979950346 0.0063176795098241652 0.043845298248125275 0.11063879908443247 -0.028466716138146244 -0.013032726008773757 0.0011267575968174246 -0.11131230203789111 0.05958510515290219 -0.064085118617217066 -0.0035059351785531774 0.023544042334711766 -0.11066889087159548 -0.10467660154598168 0.064581985318813012 0.010973366628044649 -0.10591231736299329
leaf_count=24 23 26 21 20 157 35 67 27 38 58 23 25 23 40 41 30 21 22 136 34
internal_value=0 -0.364453 0.0123578 -0.00155264 0.00861157 0.10997 0.77999 0.0150436 -0.0496731 -0.0607885 -0.357512 -0.0324204 -0.0906314 0.169873 -0.0337918 -0.103772 -0.537815 -0.225924 0.00173463 -0.21341
internal_count=891 49 842 818 797 286 102 184 511 491 61 430 365 65 342 301 73 43 228 92
shrinkage=0.1


Tree=53
num_leaves=21
num_cat=0
split_feature=10 10 9 10 10 11 11 9 9 10 9 10 6 9 9 11 11 2 5 4
split_gain=0.492112 0.636551 0.508926 0.639794 0.459979 0.437868 0.852264 1.37991 0.348779 2.11816 0.512655 0.466113 1.77672 1.65764 1.01723 2.49645 1.0726 1.5131 0.712714 1.33724
threshold=2.0711030935507986 0.84909570596320549 1.086535170332886 1.1194461642861773 -0.50940875299967192 -0.58210154122257585 -0.50827423792350579 -1.6032093459123054 -0.83471091269939357 -0.35734958189787697 -0.7002236868871341 -0.34489124420117862 1.0000000180025095e-35 -0.29676200945035541 -0.29676200945035541 -0.4711389534651399 -0.47634496667682696 1.0000000180025095e-35 2.5000000000000004 1.0000000180025095e-35
decision_type=2 2 2 2 2 2 2 2 2 2 2 2 2 2 2 2 2 2 2 2
left_child=1 4 3 -3 -1 -6 -7 -8 9 -9 -10 12 14 -13 15 -12 17 -16 -15 -20
right_child=-2 2 -4 -5 5 6 7 8 10 -11 11 13 -14 18 16 -17 -18 -19 19 -21
leaf_value=-0.059313916054280297 -0.038823864972739028 0.0060965891402090782 0.002277287948189992 0.10801416393613482 -0.0387204208330372 0.057534130219384451 0.10320151173030639 0.012159525328080102 0.036293319476076676 -0.10593568392539086 0.010407968112374093 0.085006179548490268 -0.086960675830241738 -0.010999747246946117 -0.1753722124931201 -0.1114657379208136 0.012126486908619658 -0.0081564776870752583 0.074504963604468483 -0.0061233560711340569
leaf_count=25 34 20 21 22 30 32 26 37 34 25 32 27 23 149 20 40 211 20 21 42
internal_value=0 0.0117353 0.363475 0.670274 -0.00822 0.000943337 0.0142942 -0.00430199 -0.0211431 -0.229736 0.000348221 -0.0196971 -0.0946898 0.0732938 -0.032723 -0.37071 0.0551232 -0.541233 0.00177597 0.235145
internal_count=891 857 63 42 794 769 739 707 681 62 619 585 346 239 323 72 251 40 212 63
shrinkage=0.1


Tree=54
num_leaves=21
num_cat=0
split_feature=11 11 11 10 0 10 10 11 11 9 10 11 11 11 10 11 9 4 9 10
split_gain=0.439794 0.645343 1.48435 0.712875 0.542584 0.472255 0.404606 0.388784 0.721188 1.12491 0.457054 0.546509 0.507299 0.435778 0.39008 0.303232 2.10126 0.710417 0.997581 0.952216
threshold=2.0696831449304827 0.88842585791475936 1.2112969185326365 0.84909570596320549 1.0000000180025095e-35 0.61339402408526589 -0.50940875299967192 -0.60926629652835051 -0.52374648718254546 -1.6032093459123054 0.046519020831124261 0.43553257391193673 0.39373121148892903 1.0000000180025095e-35 -0.50290625577276493 -0.47192409947940245 -1.0000000180025095e-35 1.0000000180025095e-35 0.068274746325777638 -0.29405115905505602
decision_type=2 2 2 2 2 2 2 2 2 2 2 2 2 2 2 2 2 2 2 2
left_child=1 3 -3 5 -4 6 -1 -8 -9 -10 11 12 13 14 -11 16 -16 -17 19 -19
right_child=-2 2 4 -5 -6 -7 7 8 9 10 -12 -13 -14 -15 15 17 -18 18 -20 -21
leaf_value=-0.055394795828353362 0.037965085659750493 -0.099050393867376949 -0.0097751184386990399 0.065586500252464472 0.10387167472923192 -0.062293366241320182 0.050938889775403874 -0.045512079339578244 0.098599176614159997 0.039429975181028136 0.027995361505286361 -0.033034884453658001 0.039081063097233359 -0.04917741056665785 0.00014783427090118086 0.035255769241022743 -0.11341624328874041 -0.006961697136449372 0.019185083460680107 -0.067346912095042719
leaf_count=25 33 29 20 20 20 20 21 35 26 30 46 29 20 24 103 47 24 176 112 31
internal_value=0 -0.0141457 -0.334777 0.00807717 0.0508238 -0.00491553 0.00428724 0.0131461 0.00341829 0.0233298 0.00789375 -0.014654 0.0105059 -0.0104262 0.00456223 -0.0125241 -0.128589 0.034032 -0.0216541 -0.158708
internal_count=891 858 69 789 40 769 749 724 703 668 642 596 567 547 523 493 127 366 319 207
shrinkage=0.1


Tree=55
num_leaves=21
num_cat=0
split_feature=9 0 11 3 10 11 11 9 7 5 11 4 10 9 10 9 10 11 8 10
split_gain=0.433359 0.42523 1.19478 0.413573 0.569619 0.629666 0.468436 0.793438 0.898148 0.822692 0.618263 0.616038 0.563067 0.861044 0.733436 2.49908 0.546417 0.510005 0.406301 1.04151
threshold=-2.0643084058400523 1.0000000180025095e-35 0.9949691503386634 1.0000000180025095e-35 -0.5072694424860974 -0.50247641795632347 -0.45080296435698713 -0.3928243136019694 1.0000000180025095e-35 2.5000000000000004 0.49128501431209676 1.0000000180025095e-35 -0.48914822401817265 -0.60416138273552011 -0.48570821271234493 0.068274746325777638 -0.49141337632666326 0.4031128811308235 3.5000000000000004 -0.047401241019411795
decision_type=2 2 2 2 2 2 2 2 2 2 2 2 2 2 2 2 2 2 2 2
left_child=-1 3 18 4 -2 -6 12 9 10 -8 17 -12 16 -14 15 -15 -7 -9 19 -3
right_child=1 2 -4 -5 5 6 7 8 -10 -11 11 -13 13 14 -16 -17 -18 -19 -20 -21
leaf_value=-0.048987165989742482 0.070127517686269999 0.0058328201997212732 0.10431360799791711 -0.036787368073942214 -0.0627633434796699 0.0089212692867530023 -0.021571646880527415 0.002575292707889941 -0.050672784748752801 -0.12229778386752786 0.055657637799284079 0.0025973992301891514 0.074227536538279765 -0.11086175957725147 0.047539711197173304 0.036119798956175946 -0.043417215510164323 -0.037859660827804537 -0.029341880060434096 0.10416712523461191
leaf_count=24 24 180 52 40 34 66 34 102 32 22 21 31 23 21 20 21 49 23 32 40
internal_value=0 0.00784506 0.0991942 -0.0431 -0.0213911 -0.0357266 -0.0159954 -0.0911342 -0.0326708 -0.514822 0.034638 0.242378 0.103493 0.255215 0.0951765 -0.136828 -0.0807494 -0.0861065 0.0605031 0.0970336
internal_count=891 867 304 563 523 499 465 265 209 56 177 52 200 85 62 42 115 125 252 220
shrinkage=0.1


Tree=56
num_leaves=21
num_cat=0
split_feature=8 8 11 10 10 0 9 9 9 11 10 10 9 11 10 4 0 10 9 11
split_gain=0.453899 0.858608 0.717317 0.446764 0.707994 1.47319 0.851877 0.46259 0.444705 0.424142 0.435832 0.41522 0.37829 2.16926 0.59003 1.00776 0.979087 1.1741 0.875935 2.4664
threshold=4.5000000000000009 6.5000000000000009 -0.60926629652835051 2.0711030935507986 -0.056210166663541956 1.0000000180025095e-35 -0.14306232280777309 1.3939345436180506 -1.3726598159484318 0.4031128811308235 -0.50479388269650705 -0.50265457218293264 -0.75786106937810238 -0.46583391282823045 -0.34489124420117862 1.0000000180025095e-35 1.0000000180025095e-35 -0.12563255461416215 -0.29676200945035541 -0.4711389534651399
decision_type=2 2 2 2 2 2 2 2 2 2 2 2 2 2 2 2 2 2 2 2
left_child=2 -2 -1 4 8 6 -6 -8 -4 10 -10 -12 13 -13 18 -16 17 -17 19 -14
right_child=1 -3 3 -5 5 -7 7 -9 9 -11 11 12 14 -15 15 16 -18 -19 -20 -21
leaf_value=0.060799807135227125 -0.10723878344303761 7.3761280766317436e-05 -0.047220960502931168 -0.037227515457040651 0.054613925706764516 0.092851973125260778 -0.021761206415514968 0.019289996006377878 -0.055303238436063412 -0.032355092684374191 0.03420123383504977 -0.034564254992206458 0.023738949065461507 0.074628527926425256 0.058675755483989345 -0.11192518730042966 0.019833539065555739 0.010099614693108919 -0.0023340997746799865 -0.091862823159558349
leaf_count=24 28 21 30 34 22 81 41 27 26 24 28 25 27 36 24 26 44 21 248 54
internal_value=0 -0.364803 0.0117868 -0.00169195 0.0121195 0.196059 0.0760422 -0.049809 -0.0336201 -0.0185749 0.00276932 0.0156462 -0.00573007 0.206875 -0.037584 0.14335 -0.029536 -0.483815 -0.104711 -0.408513
